{"learner":{"attributes":{"scikit_learn":"{\"_estimator_type\": \"classifier\"}"},"feature_names":["ema_5","ema_15","signal_strength","avg_iv","iv_spread","pcr_oi","pcr_volume","ce_delta","ce_gamma","ce_vega","futures_basis","spot_returns","spot_return_lag_1","spot_return_lag_2","spot_return_lag_3","regime","hour","day_of_week"],"feature_types":["float","float","float","float","float","float","float","float","float","float","float","float","float","float","float","int","int","int"],"gradient_booster":{"model":{"cats":{"enc":[],"feature_segments":[],"sorted_idx":[]},"gbtree_model_param":{"num_parallel_tree":"1","num_trees":"300"},"iteration_indptr":[0,1,2,3,4,5,6,7,8,9,10,11,12,13,14,15,16,17,18,19,20,21,22,23,24,25,26,27,28,29,30,31,32,33,34,35,36,37,38,39,40,41,42,43,44,45,46,47,48,49,50,51,52,53,54,55,56,57,58,59,60,61,62,63,64,65,66,67,68,69,70,71,72,73,74,75,76,77,78,79,80,81,82,83,84,85,86,87,88,89,90,91,92,93,94,95,96,97,98,99,100,101,102,103,104,105,106,107,108,109,110,111,112,113,114,115,116,117,118,119,120,121,122,123,124,125,126,127,128,129,130,131,132,133,134,135,136,137,138,139,140,141,142,143,144,145,146,147,148,149,150,151,152,153,154,155,156,157,158,159,160,161,162,163,164,165,166,167,168,169,170,171,172,173,174,175,176,177,178,179,180,181,182,183,184,185,186,187,188,189,190,191,192,193,194,195,196,197,198,199,200,201,202,203,204,205,206,207,208,209,210,211,212,213,214,215,216,217,218,219,220,221,222,223,224,225,226,227,228,229,230,231,232,233,234,235,236,237,238,239,240,241,242,243,244,245,246,247,248,249,250,251,252,253,254,255,256,257,258,259,260,261,262,263,264,265,266,267,268,269,270,271,272,273,274,275,276,277,278,279,280,281,282,283,284,285,286,287,288,289,290,291,292,293,294,295,296,297,298,299,300],"tree_info":[0,0,0,0,0,0,0,0,0,0,0,0,0,0,0,0,0,0,0,0,0,0,0,0,0,0,0,0,0,0,0,0,0,0,0,0,0,0,0,0,0,0,0,0,0,0,0,0,0,0,0,0,0,0,0,0,0,0,0,0,0,0,0,0,0,0,0,0,0,0,0,0,0,0,0,0,0,0,0,0,0,0,0,0,0,0,0,0,0,0,0,0,0,0,0,0,0,0,0,0,0,0,0,0,0,0,0,0,0,0,0,0,0,0,0,0,0,0,0,0,0,0,0,0,0,0,0,0,0,0,0,0,0,0,0,0,0,0,0,0,0,0,0,0,0,0,0,0,0,0,0,0,0,0,0,0,0,0,0,0,0,0,0,0,0,0,0,0,0,0,0,0,0,0,0,0,0,0,0,0,0,0,0,0,0,0,0,0,0,0,0,0,0,0,0,0,0,0,0,0,0,0,0,0,0,0,0,0,0,0,0,0,0,0,0,0,0,0,0,0,0,0,0,0,0,0,0,0,0,0,0,0,0,0,0,0,0,0,0,0,0,0,0,0,0,0,0,0,0,0,0,0,0,0,0,0,0,0,0,0,0,0,0,0,0,0,0,0,0,0,0,0,0,0,0,0,0,0,0,0,0,0,0,0,0,0,0,0,0,0,0,0,0,0,0,0,0,0,0,0],"trees":[{"base_weights":[2.638444E-2,2.1034612E-1,-5.316456E-1,-1.8528084E-1,7.4402124E-1,-6.8292683E-1,2.5179857E-2,6.363636E-2,-2.7551702E-1,-2.2653723E-1,1.0471807E0,2.0588236E-2,-8.19464E-1,4.4025157E-2,-1.990641E-2,-4.0452264E-2,2.8616352E-2,1.037037E-1,3.552812E-2,-1.1326862E-2,-5.6904234E-2],"categories":[],"categories_nodes":[],"categories_segments":[],"categories_sizes":[],"default_left":[0,0,0,0,0,0,0,0,0,0,0,0,0,0,0,0,0,0,0,0,0],"id":0,"left_children":[1,3,5,7,9,11,-1,-1,13,15,17,-1,19,-1,-1,-1,-1,-1,-1,-1,-1],"loss_changes":[7.3375654E0,1.14659605E1,3.1213999E0,4.5097265E0,7.0166187E0,2.7136335E0,0E0,0E0,4.6866693E0,3.3975601E0,4.6566086E0,0E0,2.4757195E0,0E0,0E0,0E0,0E0,0E0,0E0,0E0,0E0],"parents":[2147483647,0,0,1,1,2,2,3,3,4,4,5,5,8,8,9,9,10,10,12,12],"right_children":[2,4,6,8,10,12,-1,-1,14,16,18,-1,20,-1,-1,-1,-1,-1,-1,-1,-1],"split_conditions":[1.9841215E-3,1.982847E-3,3.759685E0,-9.124698E-4,1.5104719E-3,-1.5798889E-4,2.5179857E-2,6.363636E-2,1.0774428E-3,1.737153E-3,2.323879E-3,2.0588236E-2,1.7683945E-3,4.4025157E-2,-1.990641E-2,-4.0452264E-2,2.8616352E-2,1.037037E-1,3.552812E-2,-1.1326862E-2,-5.6904234E-2],"split_indices":[3,12,5,13,10,14,0,0,10,13,12,0,12,0,0,0,0,0,0,0,0],"split_type":[0,0,0,0,0,0,0,0,0,0,0,0,0,0,0,0,0,0,0,0,0],"sum_hessian":[6.938776E1,5.2653065E1,1.6734694E1,3.0612246E1,2.2040817E1,1.489796E1,1.8367348E0,1.0204082E0,2.9591837E1,5.306123E0,1.6734694E1,1.4285715E0,1.3469388E1,2.244898E0,2.734694E1,3.0612247E0,2.244898E0,2.857143E0,1.3877551E1,5.306123E0,8.163265E0],"tree_param":{"num_deleted":"0","num_feature":"18","num_nodes":"21","size_leaf_vector":"1"}},{"base_weights":[2.1255108E-2,-1.7653781E-1,7.418303E-1,3.8021323E-1,-5.041154E-1,1.1557295E0,-5.925243E-1,-2.3440617E-1,9.198026E-1,-6.8402445E-1,2.4711569E-1,-1.0581347E-2,1.4292393E0,1.4328787E-2,-4.7956914E-2,3.137871E-2,-3.0001465E-2,8.3709024E-2,-7.3297817E-4,-3.9216343E-2,2.5269503E-2,-2.4626968E-2,5.8055203E-2,2.0175849E-3,8.905414E-2],"categories":[],"categories_nodes":[],"categories_segments":[],"categories_sizes":[],"default_left":[0,0,0,0,0,0,0,0,0,0,0,0,0,0,0,0,0,0,0,0,0,0,0,0,0],"id":1,"left_children":[1,3,5,7,9,11,13,15,17,19,21,-1,23,-1,-1,-1,-1,-1,-1,-1,-1,-1,-1,-1,-1],"loss_changes":[1.0003295E1,1.0251134E1,9.030252E0,7.1806035E0,4.92039E0,4.7424736E0,1.6409042E0,3.7220087E0,8.051295E0,3.8117695E0,5.660482E0,0E0,4.825691E0,0E0,0E0,0E0,0E0,0E0,0E0,0E0,0E0,0E0,0E0,0E0,0E0],"parents":[2147483647,0,0,1,1,2,2,3,3,4,4,5,5,6,6,7,7,8,8,9,9,10,10,12,12],"right_children":[2,4,6,8,10,12,14,16,18,20,22,-1,24,-1,-1,-1,-1,-1,-1,-1,-1,-1,-1,-1,-1],"split_conditions":[2.4506457E0,5.243955E-1,2.0734128E-3,1.680199E-3,2.5151423E-3,1.2617627E-3,3.9825723E0,9.0816437E-4,4.240512E0,5.842925E-3,9.972861E-1,-1.0581347E-2,1.7330039E-3,1.4328787E-2,-4.7956914E-2,3.137871E-2,-3.0001465E-2,8.3709024E-2,-7.3297817E-4,-3.9216343E-2,2.5269503E-2,-2.4626968E-2,5.8055203E-2,2.0175849E-3,8.905414E-2],"split_indices":[6,6,3,3,10,3,6,14,2,14,6,0,10,0,0,0,0,0,0,0,0,0,0,0,0],"split_type":[0,0,0,0,0,0,0,0,0,0,0,0,0,0,0,0,0,0,0,0,0,0,0,0,0],"sum_hessian":[6.826755E1,5.4156864E1,1.4110682E1,2.0001545E1,3.415532E1,1.0872149E1,3.238532E0,9.615075E0,1.038647E1,2.7628218E1,6.527101E0,1.8499502E0,9.0222E0,1.0173519E0,2.2211802E0,2.6503205E0,6.964754E0,5.3089952E0,5.077474E0,2.5793638E1,1.8345796E0,3.8624673E0,2.6646338E0,2.048908E0,6.9732914E0],"tree_param":{"num_deleted":"0","num_feature":"18","num_nodes":"25","size_leaf_vector":"1"}},{"base_weights":[9.225318E-2,-1.4067467E-3,1.3004112E0,-8.278402E-1,1.1052929E-1,9.242926E-2,3.588766E-1,1.3626153E-2,-1.0339916E0,1.317366E0,7.6759197E-3,-1.0807151E-2,3.7703875E-2,-5.714714E-2,-1.0389036E-2,1.657551E-2,1.0117494E-1,6.976552E-2,-3.1056467E-3],"categories":[],"categories_nodes":[],"categories_segments":[],"categories_sizes":[],"default_left":[0,0,0,0,0,0,0,0,0,0,0,0,0,0,0,0,0,0,0],"id":2,"left_children":[1,3,5,7,9,-1,11,-1,13,15,17,-1,-1,-1,-1,-1,-1,-1,-1],"loss_changes":[7.765925E0,6.074578E0,1.8849802E0,2.0586157E0,7.1698565E0,0E0,8.578671E-1,0E0,3.7513208E-1,2.4874249E0,5.3458223E0,0E0,0E0,0E0,0E0,0E0,0E0,0E0,0E0],"parents":[2147483647,0,0,1,1,2,2,3,3,4,4,6,6,8,8,9,9,10,10],"right_children":[2,4,6,8,10,-1,12,-1,14,16,18,-1,-1,-1,-1,-1,-1,-1,-1],"split_conditions":[4.9789106E-3,9.154149E-1,2.0576045E4,1.4591801E-3,9.740763E-1,9.242926E-2,2.1229398E4,1.3626153E-2,3.4505443E-3,2.1067918E4,-8.6681696E-4,-1.0807151E-2,3.7703875E-2,-5.714714E-2,-1.0389036E-2,1.657551E-2,1.0117494E-1,6.976552E-2,-3.1056467E-3],"split_indices":[14,7,0,3,7,0,0,0,12,0,14,0,0,0,0,0,0,0,0],"split_type":[0,0,0,0,0,0,0,0,0,0,0,0,0,0,0,0,0,0,0],"sum_hessian":[6.76141E1,6.367654E1,3.9375553E0,6.8329115E0,5.6843628E1,1.8797596E0,2.0577958E0,1.0273461E0,5.805565E0,3.5367498E0,5.330688E1,1.0227578E0,1.0350379E0,4.7904954E0,1.0150698E0,2.0892918E0,1.447458E0,1.6431082E0,5.1663773E1],"tree_param":{"num_deleted":"0","num_feature":"18","num_nodes":"19","size_leaf_vector":"1"}},{"base_weights":[-1.6606579E-2,-1.89051E-1,6.476838E-1,3.49315E-1,-4.969374E-1,9.8548764E-1,-7.169996E-1,1.4850143E0,9.483603E-2,-6.8199736E-1,2.7450407E-1,4.241202E-2,1.3250734E0,-9.651764E-3,-4.225607E-2,9.17479E-2,1.2992891E-2,-3.8030114E-2,1.99296E-2,-3.909929E-2,3.500634E-2,-3.6013596E-2,4.447862E-2,3.1816594E-2,-3.971516E-2,7.923132E-2,-1.6183151E-3],"categories":[],"categories_nodes":[],"categories_segments":[],"categories_sizes":[],"default_left":[0,0,0,0,0,0,0,0,0,0,0,0,0,0,0,0,0,0,0,0,0,0,0,0,0,0,0],"id":3,"left_children":[1,3,5,7,9,11,13,15,17,19,21,23,25,-1,-1,-1,-1,-1,-1,-1,-1,-1,-1,-1,-1,-1,-1],"loss_changes":[8.428261E0,9.843323E0,7.6993833E0,6.163001E0,5.5444775E0,3.9726934E0,7.777095E-2,1.2057543E0,5.2109E0,4.7697115E0,5.519247E0,2.673946E0,3.2985382E0,0E0,0E0,0E0,0E0,0E0,0E0,0E0,0E0,0E0,0E0,0E0,0E0,0E0,0E0],"parents":[2147483647,0,0,1,1,2,2,3,3,4,4,5,5,6,6,7,7,8,8,9,9,10,10,11,11,12,12],"right_children":[2,4,6,8,10,12,14,16,18,20,22,24,26,-1,-1,-1,-1,-1,-1,-1,-1,-1,-1,-1,-1,-1,-1],"split_conditions":[2.684649E0,5.243955E-1,2.0734128E-3,1.386145E-4,2.5151423E-3,1.5864926E-15,2.2083716E-3,3.273976E-1,1.3025688E-1,4.464543E-3,8.3709306E-1,2.3127836E-3,3.177172E0,-9.651764E-3,-4.225607E-2,9.17479E-2,1.2992891E-2,-3.8030114E-2,1.99296E-2,-3.909929E-2,3.500634E-2,-3.6013596E-2,4.447862E-2,3.1816594E-2,-3.971516E-2,7.923132E-2,-1.6183151E-3],"split_indices":[6,6,3,13,10,8,3,6,6,12,6,10,5,0,0,0,0,0,0,0,0,0,0,0,0,0,0],"split_type":[0,0,0,0,0,0,0,0,0,0,0,0,0,0,0,0,0,0,0,0,0,0,0,0,0,0,0],"sum_hessian":[7.150621E1,5.7337315E1,1.4168895E1,2.0811699E1,3.6525616E1,1.1580263E1,2.5886314E0,2.9245203E0,1.7887178E1,2.95523E1,6.973314E0,3.363701E0,8.216562E0,1.0011208E0,1.5875106E0,1.8876218E0,1.0368986E0,4.2930613E0,1.3594118E1,2.796352E1,1.5887802E0,2.5989227E0,4.374391E0,2.107346E0,1.256355E0,6.7571735E0,1.4593889E0],"tree_param":{"num_deleted":"0","num_feature":"18","num_nodes":"27","size_leaf_vector":"1"}},{"base_weights":[-3.0866547E-2,-5.74918E-1,7.036704E-2,-7.932611E-1,1.652587E-1,-6.621052E-1,1.4795704E-1,-1.1289393E-1,-5.75019E-2,5.101453E-2,-3.8452413E-2,3.695831E-2,-5.4717433E-2,9.3230456E-1,1.4715406E-2,4.1749153E-2,-4.4536766E-2,-1.3208616E-2,6.800214E-2,-5.632255E-3,4.1418828E-2],"categories":[],"categories_nodes":[],"categories_segments":[],"categories_sizes":[],"default_left":[0,0,0,0,0,0,0,0,0,0,0,0,0,0,0,0,0,0,0,0,0],"id":4,"left_children":[1,3,5,7,9,11,13,15,-1,-1,-1,-1,-1,17,19,-1,-1,-1,-1,-1,-1],"loss_changes":[4.034856E0,1.9875195E0,3.6237383E0,2.0651808E0,3.5361042E0,4.51865E0,5.9341474E0,3.8547971E0,0E0,0E0,0E0,0E0,0E0,4.580556E0,5.240005E0,0E0,0E0,0E0,0E0,0E0,0E0],"parents":[2147483647,0,0,1,1,2,2,3,3,4,4,5,5,6,6,7,7,13,13,14,14],"right_children":[2,4,6,8,10,12,14,16,-1,-1,-1,-1,-1,18,20,-1,-1,-1,-1,-1,-1],"split_conditions":[3.6674167E-4,3.2554322E-3,8.2733035E-1,9.896724E-4,3.5415078E-3,6.290975E-1,9.896941E-1,-3.673265E-5,-5.75019E-2,5.101453E-2,-3.8452413E-2,3.695831E-2,-5.4717433E-2,1.5821822E-3,3.7191433E-3,4.1749153E-2,-4.4536766E-2,-1.3208616E-2,6.800214E-2,-5.632255E-3,4.1418828E-2],"split_indices":[12,13,7,13,13,7,7,12,0,0,0,0,0,10,12,0,0,0,0,0,0],"split_type":[0,0,0,0,0,0,0,0,0,0,0,0,0,0,0,0,0,0,0,0,0],"sum_hessian":[7.152488E1,1.0486895E1,6.1037987E1,8.042682E0,2.4442124E0,5.124819E0,5.5913166E1,3.219527E0,4.823155E0,1.2281972E0,1.2160153E0,1.040759E0,4.08406E0,7.248232E0,4.8664936E1,1.4180412E0,1.8014859E0,2.0095317E0,5.2387E0,4.2823437E1,5.841497E0],"tree_param":{"num_deleted":"0","num_feature":"18","num_nodes":"21","size_leaf_vector":"1"}},{"base_weights":[-2.9717812E-3,-1.19960025E-1,1.168423E0,8.924336E-1,-1.900749E-1,7.666943E-2,9.3274616E-2,8.016189E-2,-1.974738E-2,6.5897477E-1,-2.8097266E-1,4.82171E-2,-3.9893053E-2,7.449936E-2,4.8562675E-3,4.934742E-2,-1.6314741E-2],"categories":[],"categories_nodes":[],"categories_segments":[],"categories_sizes":[],"default_left":[0,0,0,0,0,0,0,0,0,0,0,0,0,0,0,0,0],"id":5,"left_children":[1,3,5,7,9,11,-1,-1,-1,13,15,-1,-1,-1,-1,-1,-1],"loss_changes":[1.0083805E1,4.9169345E0,4.941986E0,4.757779E0,5.075943E0,3.6002657E0,0E0,0E0,0E0,2.8561952E0,3.6517844E0,0E0,0E0,0E0,0E0,0E0,0E0],"parents":[2147483647,0,0,1,1,2,2,3,3,4,4,5,5,9,9,10,10],"right_children":[2,4,6,8,10,12,-1,-1,-1,14,16,-1,-1,-1,-1,-1,-1],"split_conditions":[4.4852733E-3,6.887958E-2,2.0172321E-3,1.9842964E-3,-1.1381511E-4,7.320256E-4,9.3274616E-2,8.016189E-2,-1.974738E-2,8.776175E-4,1.7966287E4,4.82171E-2,-3.9893053E-2,7.449936E-2,4.8562675E-3,4.934742E-2,-1.6314741E-2],"split_indices":[14,6,12,14,11,12,0,0,0,14,0,0,0,0,0,0,0],"split_type":[0,0,0,0,0,0,0,0,0,0,0,0,0,0,0,0,0],"sum_hessian":[7.156044E1,6.587867E1,5.681769E0,3.5073683E0,6.23713E1,2.646615E0,3.035154E0,2.1016386E0,1.40573E0,5.4272556E0,5.6944046E1,1.2624731E0,1.3841418E0,1.5228806E0,3.9043748E0,1.2482076E0,5.569584E1],"tree_param":{"num_deleted":"0","num_feature":"18","num_nodes":"17","size_leaf_vector":"1"}},{"base_weights":[-2.9439502E-3,-1.7272621E-1,5.587706E-1,4.8167202E-1,-5.5015075E-1,8.9397943E-1,-5.807354E-1,-4.2229723E-2,9.5762056E-1,-1.0280465E0,-2.4849732E-1,8.7230526E-2,5.1502186E-1,6.993692E-3,-4.5451973E-2,2.0451771E-2,-4.1041788E-2,7.646428E-2,6.8791048E-3,-6.1828863E-2,8.691532E-3,-3.3987362E-2,1.1302621E-2,6.253596E-2,3.6760815E-3],"categories":[],"categories_nodes":[],"categories_segments":[],"categories_sizes":[],"default_left":[0,0,0,0,0,0,0,0,0,0,0,0,0,0,0,0,0,0,0,0,0,0,0,0,0],"id":6,"left_children":[1,3,5,7,9,11,13,15,17,19,21,-1,23,-1,-1,-1,-1,-1,-1,-1,-1,-1,-1,-1,-1],"loss_changes":[6.6835184E0,1.3553181E1,6.7327514E0,5.0805287E0,4.730773E0,3.2802505E0,1.1453354E0,4.05294E0,4.774395E0,3.4895554E0,4.762969E0,0E0,3.281817E0,0E0,0E0,0E0,0E0,0E0,0E0,0E0,0E0,0E0,0E0,0E0,0E0],"parents":[2147483647,0,0,1,1,2,2,3,3,4,4,5,5,6,6,7,7,8,8,9,9,10,10,12,12],"right_children":[2,4,6,8,10,12,14,16,18,20,22,-1,24,-1,-1,-1,-1,-1,-1,-1,-1,-1,-1,-1,-1],"split_conditions":[2.4801106E0,5.243955E-1,2.0580925E-3,1.680199E-3,1.2360099E-3,8.776175E-4,3.9825723E0,2.1112748E4,4.240512E0,3.3241229E-3,1.8039243E-3,8.7230526E-2,9.9955124E-1,6.993692E-3,-4.5451973E-2,2.0451771E-2,-4.1041788E-2,7.646428E-2,6.8791048E-3,-6.1828863E-2,8.691532E-3,-3.3987362E-2,1.1302621E-2,6.253596E-2,3.6760815E-3],"split_indices":[6,6,3,3,12,14,6,0,2,11,13,0,7,0,0,0,0,0,0,0,0,0,0,0,0],"split_type":[0,0,0,0,0,0,0,0,0,0,0,0,0,0,0,0,0,0,0,0,0,0,0,0,0],"sum_hessian":[6.806849E1,5.280139E1,1.5267098E1,1.9212885E1,3.3588505E1,1.1963314E1,3.3037846E0,9.579497E0,9.633388E0,1.20655575E1,2.1522947E1,2.5764196E0,9.386894E0,1.2137095E0,2.090075E0,6.3650775E0,3.2144203E0,5.166691E0,4.466697E0,1.0257045E1,1.8085128E0,1.1049366E1,1.0473581E1,2.8330822E0,6.5538125E0],"tree_param":{"num_deleted":"0","num_feature":"18","num_nodes":"25","size_leaf_vector":"1"}},{"base_weights":[-8.794787E-2,-1.895344E-1,8.368797E-1,5.610345E-2,-2.387743E-1,1.0687739E0,-1.2989956E-2,-3.042876E-1,6.777647E-1,1.3931996E0,-2.8954293E-5,-3.2407086E-2,-3.7463263E-3,6.471699E-2,-1.9814571E-2,5.9193647E-3,9.0677604E-2],"categories":[],"categories_nodes":[],"categories_segments":[],"categories_sizes":[],"default_left":[0,0,0,0,0,0,0,0,0,0,0,0,0,0,0,0,0],"id":7,"left_children":[1,3,5,-1,7,9,-1,11,13,15,-1,-1,-1,-1,-1,-1,-1],"loss_changes":[6.77997E0,4.421749E0,2.0985422E0,0E0,3.9779778E0,2.119059E0,0E0,4.6293783E0,3.4931693E0,2.2958384E0,0E0,0E0,0E0,0E0,0E0,0E0,0E0],"parents":[2147483647,0,0,1,1,2,2,4,4,5,5,7,7,8,8,9,9],"right_children":[2,4,6,-1,8,10,-1,12,14,16,-1,-1,-1,-1,-1,-1,-1],"split_conditions":[3.799719E-3,-9.124698E-4,7.388522E-3,5.610345E-2,5.586178E-3,6.908001E0,-1.2989956E-2,1.241036E-3,2.0733464E-3,1.0752132E0,-2.8954293E-5,-3.2407086E-2,-3.7463263E-3,6.471699E-2,-1.9814571E-2,5.9193647E-3,9.0677604E-2],"split_indices":[14,14,14,0,12,2,0,14,13,2,0,0,0,0,0,0,0],"split_type":[0,0,0,0,0,0,0,0,0,0,0,0,0,0,0,0,0],"sum_hessian":[6.9477394E1,6.331743E1,6.1599646E0,1.5026826E0,6.1814747E1,5.1057844E0,1.0541803E0,5.831449E1,3.500258E0,3.6849747E0,1.4208096E0,2.2602844E1,3.5711643E1,2.0934134E0,1.4068446E0,1.2315781E0,2.4533966E0],"tree_param":{"num_deleted":"0","num_feature":"18","num_nodes":"17","size_leaf_vector":"1"}},{"base_weights":[-3.9003152E-2,-1.4793886E-1,1.0625712E0,-3.8051286E-1,3.4856164E-1,3.2499054E-1,1.470717E0,6.734257E-2,-4.634706E-1,-4.0467456E-1,7.140476E-1,5.201602E-2,-2.16694E-2,1.299725E-2,9.101384E-2,9.152828E-5,-3.541701E-2,3.7953366E-2,-3.5230838E-2,6.60419E-2,6.524784E-3],"categories":[],"categories_nodes":[],"categories_segments":[],"categories_sizes":[],"default_left":[0,0,0,0,0,0,0,0,0,0,0,0,0,0,0,0,0,0,0,0,0],"id":8,"left_children":[1,3,5,7,9,11,13,-1,15,17,19,-1,-1,-1,-1,-1,-1,-1,-1,-1,-1],"loss_changes":[8.573971E0,7.604341E0,1.4589744E0,7.0070696E0,6.115017E0,2.3906558E0,1.1598654E0,0E0,4.9285755E0,3.170968E0,5.001175E0,0E0,0E0,0E0,0E0,0E0,0E0,0E0,0E0,0E0,0E0],"parents":[2147483647,0,0,1,1,2,2,3,3,4,4,5,5,6,6,8,8,9,9,10,10],"right_children":[2,4,6,8,10,12,14,-1,16,18,20,-1,-1,-1,-1,-1,-1,-1,-1,-1,-1],"split_conditions":[4.464543E-3,1.56738E0,8.881954E-1,-8.6681696E-4,1.7423518E-3,4.7205338E-1,5.586178E-3,6.734257E-2,4.0085682E-1,-3.6169597E-4,3.3263288E0,5.201602E-2,-2.16694E-2,1.299725E-2,9.101384E-2,9.152828E-5,-3.541701E-2,3.7953366E-2,-3.5230838E-2,6.60419E-2,6.524784E-3],"split_indices":[14,6,5,14,10,5,14,0,6,11,6,0,0,0,0,0,0,0,0,0,0],"split_type":[0,0,0,0,0,0,0,0,0,0,0,0,0,0,0,0,0,0,0,0,0],"sum_hessian":[6.913934E1,6.3705177E1,5.434162E0,4.354238E1,2.0162796E1,2.5757167E0,2.8584452E0,1.2971636E0,4.2245216E1,6.552146E0,1.361065E1,1.1341635E0,1.4415531E0,1.0310004E0,1.8274449E0,1.4908538E1,2.733668E1,1.0290061E0,5.5231395E0,6.053079E0,7.5575714E0],"tree_param":{"num_deleted":"0","num_feature":"18","num_nodes":"21","size_leaf_vector":"1"}},{"base_weights":[-2.8791192E-3,-8.594595E-1,1.1755851E-1,7.98022E-3,-5.707059E-2,-6.7102484E-2,6.3995665E-1,6.2588555E-1,-1.7180796E-1,-2.2702068E-1,9.7389245E-1,8.757783E-2,-5.0188354E-3,-1.4069288E-2,2.2764783E-2,-4.464616E-2,1.9667955E-2,6.2074322E-2,-4.4523203E-3],"categories":[],"categories_nodes":[],"categories_segments":[],"categories_sizes":[],"default_left":[0,0,0,0,0,0,0,0,0,0,0,0,0,0,0,0,0,0,0],"id":9,"left_children":[1,3,5,-1,-1,7,9,11,13,15,17,-1,-1,-1,-1,-1,-1,-1,-1],"loss_changes":[7.444876E0,2.7380753E0,6.1483383E0,0E0,0E0,3.5661597E0,5.0340667E0,5.4669113E0,3.0275404E0,2.595945E0,3.5780058E0,0E0,0E0,0E0,0E0,0E0,0E0,0E0,0E0],"parents":[2147483647,0,0,1,1,2,2,5,5,6,6,7,7,8,8,9,9,10,10],"right_children":[2,4,6,-1,-1,8,10,12,14,16,18,-1,-1,-1,-1,-1,-1,-1,-1],"split_conditions":[9.046165E-1,1.4591801E-3,8.5924315E-5,7.98022E-3,-5.707059E-2,-1.1381511E-4,1.6442317E-3,8.776175E-4,2.1779307E4,1.4055744E-3,1.4E1,8.757783E-2,-5.0188354E-3,-1.4069288E-2,2.2764783E-2,-4.464616E-2,1.9667955E-2,6.2074322E-2,-4.4523203E-3],"split_indices":[7,3,8,0,0,11,3,14,1,14,16,0,0,0,0,0,0,0,0],"split_type":[0,0,0,0,0,0,0,0,0,0,0,0,0,0,0,0,0,0,0],"sum_hessian":[7.018571E1,7.895431E0,6.2290276E1,1.8051139E0,6.090317E0,4.6665997E1,1.5624278E1,5.472033E0,4.1193966E1,4.433643E0,1.1190635E1,1.592302E0,3.8797312E0,3.5535854E1,5.658112E0,1.9264816E0,2.5071614E0,8.805805E0,2.38483E0],"tree_param":{"num_deleted":"0","num_feature":"18","num_nodes":"19","size_leaf_vector":"1"}},{"base_weights":[-1.4542479E-2,-1.4904073E-1,6.958727E-1,-9.1239727E-1,-4.591835E-3,8.830866E-2,1.1662908E0,-5.860415E-2,-5.1961675E-2,8.286313E-1,-1.4294115E-1,1.0086848E0,-7.590234E-1,7.95674E-2,4.5407575E-1,-3.7623275E-2,3.8508233E-2,6.1532285E-2,-3.7320256E-2,-1.4132075E-2,3.0339269E-2,9.486399E-3,6.535262E-2,-4.4096544E-2,-1.0533515E-2,-2.146786E-2,5.849424E-2],"categories":[],"categories_nodes":[],"categories_segments":[],"categories_sizes":[],"default_left":[0,0,0,0,0,0,0,0,0,0,0,0,0,0,0,0,0,0,0,0,0,0,0,0,0,0,0],"id":10,"left_children":[1,3,5,7,9,11,13,-1,15,17,19,21,23,-1,25,-1,-1,-1,-1,-1,-1,-1,-1,-1,-1,-1,-1],"loss_changes":[7.02119E0,6.798759E0,3.241239E0,2.1314964E0,6.21468E0,5.591464E0,1.2490616E0,0E0,2.492183E0,5.7799506E0,5.0110097E0,5.81722E-1,6.980491E-2,0E0,2.9264622E0,0E0,0E0,0E0,0E0,0E0,0E0,0E0,0E0,0E0,0E0,0E0,0E0],"parents":[2147483647,0,0,1,1,2,2,3,3,4,4,5,5,6,6,8,8,9,9,10,10,11,11,12,12,14,14],"right_children":[2,4,6,8,10,12,14,-1,16,18,20,22,24,-1,26,-1,-1,-1,-1,-1,-1,-1,-1,-1,-1,-1,-1],"split_conditions":[3.4095736E-3,3.6674167E-4,2.0172321E-3,2.323879E-3,1.386145E-4,7.320256E-4,2.9178897E-3,-5.860415E-2,4.8554893E-15,2.800499E-3,2.7916923E-3,9.994239E-1,1.4457394E-3,7.95674E-2,4.9789106E-3,-3.7623275E-2,3.8508233E-2,6.1532285E-2,-3.7320256E-2,-1.4132075E-2,3.0339269E-2,9.486399E-3,6.535262E-2,-4.4096544E-2,-1.0533515E-2,-2.146786E-2,5.849424E-2],"split_indices":[14,12,12,14,14,12,12,0,8,13,10,7,13,0,14,0,0,0,0,0,0,0,0,0,0,0,0],"split_type":[0,0,0,0,0,0,0,0,0,0,0,0,0,0,0,0,0,0,0,0,0,0,0,0,0,0,0],"sum_hessian":[7.139672E1,6.069579E1,1.070093E1,8.8119E0,5.188389E1,5.188061E0,5.512868E0,6.4907475E0,2.3211524E0,6.6776476E0,4.520624E1,2.395564E0,2.7924972E0,2.6794062E0,2.8334618E0,1.2990295E0,1.0221231E0,5.4940057E0,1.1836418E0,3.8630947E1,6.575295E0,1.0765489E0,1.3190153E0,1.7842503E0,1.008247E0,1.4473541E0,1.3861077E0],"tree_param":{"num_deleted":"0","num_feature":"18","num_nodes":"27","size_leaf_vector":"1"}},{"base_weights":[6.9768414E-2,-1.519728E-1,8.668021E-1,3.05781E-1,-4.650225E-1,1.1173129E0,-2.6883928E-2,1.1878228E0,6.712962E-2,-6.038069E-1,1.4000249E-1,1.2379414E-1,1.3455867E0,8.1261486E-2,1.3647418E-3,-3.28844E-2,1.9193871E-2,-4.5192E-2,-1.0264218E-2,-2.7219636E-2,4.5171604E-2,3.5742886E-2,-2.1375999E-2,-1.0867226E-3,7.858401E-2],"categories":[],"categories_nodes":[],"categories_segments":[],"categories_sizes":[],"default_left":[0,0,0,0,0,0,0,0,0,0,0,0,0,0,0,0,0,0,0,0,0,0,0,0,0],"id":11,"left_children":[1,3,5,7,9,11,-1,13,15,17,19,21,23,-1,-1,-1,-1,-1,-1,-1,-1,-1,-1,-1,-1],"loss_changes":[1.1937619E1,7.7530413E0,5.768716E0,4.587826E0,2.766283E0,2.734126E0,0E0,2.3221645E0,4.5024633E0,2.943222E0,4.029538E0,1.4431813E0,3.2180386E0,0E0,0E0,0E0,0E0,0E0,0E0,0E0,0E0,0E0,0E0,0E0,0E0],"parents":[2147483647,0,0,1,1,2,2,3,3,4,4,5,5,7,7,8,8,9,9,10,10,11,11,12,12],"right_children":[2,4,6,8,10,12,-1,14,16,18,20,22,24,-1,-1,-1,-1,-1,-1,-1,-1,-1,-1,-1,-1],"split_conditions":[2.6239266E0,5.651123E-1,2.0990246E-3,3.6674167E-4,2.5151423E-3,1.7330039E-3,-2.6883928E-2,2.4640227E-3,1.4126876E-1,1.737153E-3,9.972861E-1,2.047333E4,1.1891373E-3,8.1261486E-2,1.3647418E-3,-3.28844E-2,1.9193871E-2,-4.5192E-2,-1.0264218E-2,-2.7219636E-2,4.5171604E-2,3.5742886E-2,-2.1375999E-2,-1.0867226E-3,7.858401E-2],"split_indices":[6,6,3,13,10,10,0,12,6,13,6,0,3,0,0,0,0,0,0,0,0,0,0,0,0],"split_type":[0,0,0,0,0,0,0,0,0,0,0,0,0,0,0,0,0,0,0,0,0,0,0,0,0],"sum_hessian":[6.5799866E1,5.2111385E1,1.3688482E1,2.1173649E1,3.0937737E1,1.1790016E1,1.8984663E0,3.6619742E0,1.7511675E1,2.5166826E1,5.7709107E0,2.4909453E0,9.29907E0,2.3687584E0,1.2932159E0,4.9980965E0,1.2513578E1,1.3634176E1,1.153265E1,3.1942544E0,2.576656E0,1.0589752E0,1.4319701E0,1.4477202E0,7.851351E0],"tree_param":{"num_deleted":"0","num_feature":"18","num_nodes":"25","size_leaf_vector":"1"}},{"base_weights":[5.114161E-2,-4.9125783E-2,9.438328E-1,-1.5593277E-1,5.415401E-1,1.2034558E0,-1.3409935E-2,4.4226147E-2,-5.577468E-1,-2.7089043E-2,8.5240597E-1,2.935837E-1,8.114142E-2,1.1023096E-2,-3.1082952E-2,2.9158724E-2,-3.376658E-2,6.4180285E-2,-1.4279398E-2,3.2084752E-2,-1.0586979E-2],"categories":[],"categories_nodes":[],"categories_segments":[],"categories_sizes":[],"default_left":[0,0,0,0,0,0,0,0,0,0,0,0,0,0,0,0,0,0,0,0,0],"id":12,"left_children":[1,3,5,7,9,11,-1,13,15,-1,17,19,-1,-1,-1,-1,-1,-1,-1,-1,-1],"loss_changes":[6.1934595E0,4.0395265E0,2.5205326E0,4.3571205E0,3.7701888E0,1.7879963E0,0E0,4.4654236E0,2.8066063E0,0E0,4.3030186E0,6.799859E-1,0E0,0E0,0E0,0E0,0E0,0E0,0E0,0E0,0E0],"parents":[2147483647,0,0,1,1,2,2,3,3,4,4,5,5,7,7,8,8,10,10,11,11],"right_children":[2,4,6,8,10,12,-1,14,16,-1,18,20,-1,-1,-1,-1,-1,-1,-1,-1,-1],"split_conditions":[4.4852733E-3,2.1737322E4,7.617718E-3,2.1044707E4,3.380653E-19,2.0172321E-3,-1.3409935E-2,3.0730972E-3,6.388206E-2,-2.7089043E-2,2.2678258E4,5.586178E-3,8.114142E-2,1.1023096E-2,-3.1082952E-2,2.9158724E-2,-3.376658E-2,6.4180285E-2,-1.4279398E-2,3.2084752E-2,-1.0586979E-2],"split_indices":[14,0,14,1,8,12,0,12,6,0,0,14,0,0,0,0,0,0,0,0,0],"split_type":[0,0,0,0,0,0,0,0,0,0,0,0,0,0,0,0,0,0,0,0,0],"sum_hessian":[6.7676605E1,6.1692276E1,5.9843297E0,5.2868374E1,8.823903E0,4.9344273E0,1.0499026E0,3.588341E1,1.6984962E1,1.8018641E0,7.0220385E0,2.0931585E0,2.8412685E0,2.8902802E1,6.9806094E0,1.2169842E0,1.5767978E1,4.9996543E0,2.0223846E0,1.0795789E0,1.0135797E0],"tree_param":{"num_deleted":"0","num_feature":"18","num_nodes":"21","size_leaf_vector":"1"}},{"base_weights":[8.930066E-3,4.0528527E-1,-2.2401562E-1,-1.5669055E-1,7.7028E-1,-3.226388E-1,8.415237E-1,-4.7707903E-1,6.008951E-1,1.5116292E0,2.634016E-1,3.4339923E-1,-4.650638E-1,3.5603128E-3,5.884695E-2,-3.6888115E-2,3.136451E-2,-1.3814652E-2,5.3038687E-2,9.69852E-2,-1.3401655E-2,-5.55714E-3,5.3451974E-2,-2.4382956E-2,6.708358E-2,-6.17047E-4,-3.3318143E-2],"categories":[],"categories_nodes":[],"categories_segments":[],"categories_sizes":[],"default_left":[0,0,0,0,0,0,0,0,0,0,0,0,0,0,0,0,0,0,0,0,0,0,0,0,0,0,0],"id":13,"left_children":[1,3,5,7,9,11,13,15,17,19,21,23,25,-1,-1,-1,-1,-1,-1,-1,-1,-1,-1,-1,-1,-1,-1],"loss_changes":[6.305795E0,5.304677E0,4.794486E0,2.9037642E0,5.4229E0,3.9652233E0,9.2989516E-1,2.8047976E0,1.7643672E0,5.151434E0,3.260421E0,6.9947233E0,3.0423918E0,0E0,0E0,0E0,0E0,0E0,0E0,0E0,0E0,0E0,0E0,0E0,0E0,0E0,0E0],"parents":[2147483647,0,0,1,1,2,2,3,3,4,4,5,5,6,6,7,7,8,8,9,9,10,10,11,11,12,12],"right_children":[2,4,6,8,10,12,14,16,18,20,22,24,26,-1,-1,-1,-1,-1,-1,-1,-1,-1,-1,-1,-1,-1,-1],"split_conditions":[3.1309757E0,1.5838821E0,5.586178E-3,2.1555033E4,2.020487E4,4.0558632E-4,2.4580571E-3,3.8888103E-3,1.7249498E-3,2.8851484E-3,2.4474845E-3,3E0,9.9956715E-1,3.5603128E-3,5.884695E-2,-3.6888115E-2,3.136451E-2,-1.3814652E-2,5.3038687E-2,9.69852E-2,-1.3401655E-2,-5.55714E-3,5.3451974E-2,-2.4382956E-2,6.708358E-2,-6.17047E-4,-3.3318143E-2],"split_indices":[2,2,14,0,0,13,12,14,3,13,13,17,7,0,0,0,0,0,0,0,0,0,0,0,0,0,0],"split_type":[0,0,0,0,0,0,0,0,0,0,0,0,0,0,0,0,0,0,0,0,0,0,0,0,0,0,0],"sum_hessian":[6.631351E1,2.4273138E1,4.204037E1,9.782265E0,1.4490872E1,3.9117023E1,2.9233499E0,7.1350603E0,2.6472049E0,5.0794897E0,9.411383E0,6.6425653E0,3.2474457E1,1.2545146E0,1.6688354E0,6.0410485E0,1.0940118E0,1.0478E0,1.5994048E0,4.022098E0,1.0573919E0,7.0130363E0,2.398346E0,3.9039974E0,2.7385678E0,1.0321849E1,2.2152609E1],"tree_param":{"num_deleted":"0","num_feature":"18","num_nodes":"27","size_leaf_vector":"1"}},{"base_weights":[2.7371636E-2,1.16585806E-1,-8.280272E-1,2.4985169E-1,-2.9820538E-1,2.7140824E-3,-5.397002E-2,-6.677983E-2,6.030002E-1,2.6538908E-1,-8.0863535E-1,-1.9791836E-2,3.1589232E-2,-9.06911E-3,4.4582512E-2,5.356061E-2,-1.2523467E-2,-4.999588E-2,6.1811595E-3],"categories":[],"categories_nodes":[],"categories_segments":[],"categories_sizes":[],"default_left":[0,0,0,0,0,0,0,0,0,0,0,0,0,0,0,0,0,0,0],"id":14,"left_children":[1,3,5,7,9,-1,-1,11,13,15,17,-1,-1,-1,-1,-1,-1,-1,-1],"loss_changes":[5.121365E0,3.4189231E0,1.4652009E0,5.2213116E0,4.577967E0,0E0,0E0,6.072789E0,5.1436796E0,3.5777562E0,1.5870023E0,0E0,0E0,0E0,0E0,0E0,0E0,0E0,0E0],"parents":[2147483647,0,0,1,1,2,2,3,3,4,4,7,7,8,8,9,9,10,10],"right_children":[2,4,6,8,10,-1,-1,12,14,16,18,-1,-1,-1,-1,-1,-1,-1,-1],"split_conditions":[3.8866329E-3,1.9841215E-3,1.6509683E0,1.982847E-3,3.9357424E0,2.7140824E-3,-5.397002E-2,3.0622657E-3,1.5723193E-3,1.1E1,2.7494782E-3,-1.9791836E-2,3.1589232E-2,-9.06911E-3,4.4582512E-2,5.356061E-2,-1.2523467E-2,-4.999588E-2,6.1811595E-3],"split_indices":[13,3,2,12,2,0,0,11,10,16,13,0,0,0,0,0,0,0,0],"split_type":[0,0,0,0,0,0,0,0,0,0,0,0,0,0,0,0,0,0,0],"sum_hessian":[6.484439E1,5.950228E1,5.342109E0,4.5334625E1,1.4167658E1,1.3583658E0,3.9837434E0,2.4330711E1,2.1003914E1,6.96133E0,7.2063284E0,1.683431E1,7.4964004E0,5.7501025E0,1.5253811E1,2.2968519E0,4.664478E0,5.919235E0,1.287093E0],"tree_param":{"num_deleted":"0","num_feature":"18","num_nodes":"19","size_leaf_vector":"1"}},{"base_weights":[7.942678E-2,-2.1879207E-1,4.3319392E-1,3.248847E-1,-4.812659E-1,6.888601E-1,-2.5975338E-1,-4.2311903E-2,1.3850771E0,-7.575909E-1,3.2078665E-2,1.7432252E0,4.3537635E-1,1.4529705E-1,-4.7337968E-2,-3.8459577E-2,1.679042E-2,8.8439986E-2,1.3348623E-2,2.5171785E-2,-4.7518574E-2,-3.972728E-2,2.8328625E-2,1.06800914E-1,1.2871252E-2,-4.4064894E-2,3.14942E-2,3.325874E-2,-2.2754358E-2],"categories":[],"categories_nodes":[],"categories_segments":[],"categories_sizes":[],"default_left":[0,0,0,0,0,0,0,0,0,0,0,0,0,0,0,0,0,0,0,0,0,0,0,0,0,0,0,0,0],"id":15,"left_children":[1,3,5,7,9,11,13,15,17,19,21,23,25,27,-1,-1,-1,-1,-1,-1,-1,-1,-1,-1,-1,-1,-1,-1,-1],"loss_changes":[7.2721343E0,5.518832E0,5.7513123E0,5.0541363E0,3.6764135E0,5.4549437E0,2.6985967E0,3.1445901E0,9.5679426E-1,4.557122E0,4.854571E0,1.8857613E0,5.6968107E0,2.380451E0,0E0,0E0,0E0,0E0,0E0,0E0,0E0,0E0,0E0,0E0,0E0,0E0,0E0,0E0,0E0],"parents":[2147483647,0,0,1,1,2,2,3,3,4,4,5,5,6,6,7,7,8,8,9,9,10,10,11,11,12,12,13,13],"right_children":[2,4,6,8,10,12,14,16,18,20,22,24,26,28,-1,-1,-1,-1,-1,-1,-1,-1,-1,-1,-1,-1,-1,-1,-1],"split_conditions":[1.982847E-3,5.243955E-1,1.9615444E-3,2.1229398E4,1.56738E0,2.2294698E-3,1E0,1.4126876E-1,3.3655567E-3,1E1,1.7330039E-3,1.7466194E-3,1.2206245E-3,2.857539E-3,-4.7337968E-2,-3.8459577E-2,1.679042E-2,8.8439986E-2,1.3348623E-2,2.5171785E-2,-4.7518574E-2,-3.972728E-2,2.8328625E-2,1.06800914E-1,1.2871252E-2,-4.4064894E-2,3.14942E-2,3.325874E-2,-2.2754358E-2],"split_indices":[12,6,3,0,6,12,7,6,11,16,10,3,10,12,0,0,0,0,0,0,0,0,0,0,0,0,0,0,0],"split_type":[0,0,0,0,0,0,0,0,0,0,0,0,0,0,0,0,0,0,0,0,0,0,0,0,0,0,0,0,0],"sum_hessian":[6.7031784E1,3.6578423E1,3.0453363E1,1.1832116E1,2.4746305E1,2.2250013E1,8.20335E0,9.501404E0,2.3307118E0,1.5777657E1,8.968648E0,3.1733608E0,1.9076653E1,5.6567225E0,2.546628E0,2.8973782E0,6.604026E0,1.3019372E0,1.0287747E0,1.8784957E0,1.3899161E1,3.3308172E0,5.637831E0,2.1637263E0,1.0096344E0,2.000927E0,1.7075726E1,2.9737833E0,2.682939E0],"tree_param":{"num_deleted":"0","num_feature":"18","num_nodes":"29","size_leaf_vector":"1"}},{"base_weights":[6.789392E-2,-5.341591E-1,1.7762029E-1,-8.406741E-1,3.5361957E-2,3.403702E-1,-2.6356283E-1,6.267588E-3,-1.0153805E0,8.779227E-1,1.0871219E-1,-4.782505E-1,4.3678142E-2,-1.0692584E-2,-5.5977788E-2,6.109269E-3,6.068457E-2,2.4651997E-2,-1.0011579E-2,-3.3619024E-2,2.8361026E-2],"categories":[],"categories_nodes":[],"categories_segments":[],"categories_sizes":[],"default_left":[0,0,0,0,0,0,0,0,0,0,0,0,0,0,0,0,0,0,0,0,0],"id":16,"left_children":[1,3,5,7,-1,9,11,-1,13,15,17,19,-1,-1,-1,-1,-1,-1,-1,-1,-1],"loss_changes":[4.337298E0,4.456517E0,4.0438833E0,1.5781379E0,0E0,4.9686365E0,4.178331E0,0E0,3.7763453E-1,2.923586E0,3.60858E0,3.1423979E0,0E0,0E0,0E0,0E0,0E0,0E0,0E0,0E0,0E0],"parents":[2147483647,0,0,1,1,2,2,3,3,5,5,6,6,8,8,9,9,10,10,11,11],"right_children":[2,4,6,8,-1,10,12,-1,14,16,18,20,-1,-1,-1,-1,-1,-1,-1,-1,-1],"split_conditions":[3.6674167E-4,2.5349832E-3,2.857539E-3,1.6021465E-1,3.5361957E-2,9.996956E-1,1.5E1,6.267588E-3,6.203732E-21,9.1991407E-1,2.047333E4,3.2378256E-3,4.3678142E-2,-1.0692584E-2,-5.5977788E-2,6.109269E-3,6.068457E-2,2.4651997E-2,-1.0011579E-2,-3.3619024E-2,2.8361026E-2],"split_indices":[12,10,13,6,0,7,16,0,9,7,0,14,0,0,0,0,0,0,0,0,0],"split_type":[0,0,0,0,0,0,0,0,0,0,0,0,0,0,0,0,0,0,0,0,0],"sum_hessian":[6.3219646E1,9.149505E0,5.407014E1,7.596617E0,1.552888E0,3.9666065E1,1.4404077E1,1.206709E0,6.389908E0,1.1105799E1,2.8560266E1,1.26039E1,1.8001764E0,1.0861136E0,5.3037944E0,3.8359237E0,7.269875E0,1.2461813E1,1.6098454E1,1.093102E1,1.6728803E0],"tree_param":{"num_deleted":"0","num_feature":"18","num_nodes":"21","size_leaf_vector":"1"}},{"base_weights":[-1.6773291E-2,-1.3839883E-1,6.0270226E-1,4.5538293E-3,-6.5159845E-1,1.0207995E0,-4.9766207E-1,-3.318074E-1,1.8425016E-1,1.4426333E-2,-9.386206E-1,1.2305793E0,1.71421E-4,1.0418529E-2,-4.311031E-2,-1.6032225E-3,-5.2584138E-2,-1.7219624E-3,5.1642407E-2,5.3914655E-2,-3.204269E-2,8.77053E-3,-5.728784E-2,9.096139E-2,2.3905069E-2],"categories":[],"categories_nodes":[],"categories_segments":[],"categories_sizes":[],"default_left":[0,0,0,0,0,0,0,0,0,0,0,0,0,0,0,0,0,0,0,0,0,0,0,0,0],"id":17,"left_children":[1,3,5,7,9,11,13,15,17,19,21,23,-1,-1,-1,-1,-1,-1,-1,-1,-1,-1,-1,-1,-1],"loss_changes":[4.948967E0,4.022753E0,5.4697113E0,2.7114656E0,2.2968783E0,1.7337132E0,1.1169865E0,3.337914E0,5.4587545E0,3.8853292E0,2.1306367E0,2.1193323E0,0E0,0E0,0E0,0E0,0E0,0E0,0E0,0E0,0E0,0E0,0E0,0E0,0E0],"parents":[2147483647,0,0,1,1,2,2,3,3,4,4,5,5,6,6,7,7,8,8,9,9,10,10,11,11],"right_children":[2,4,6,8,10,12,14,16,18,20,22,24,-1,-1,-1,-1,-1,-1,-1,-1,-1,-1,-1,-1,-1],"split_conditions":[2.1737322E4,2.1194895E4,1.4E1,1.0791199E-3,1.2573117E-3,2.2701809E4,1.3085417E-3,2.3641088E-3,2.6630035E-3,1.9256727E-10,9.154149E-1,1.1608292E0,1.71421E-4,1.0418529E-2,-4.311031E-2,-1.6032225E-3,-5.2584138E-2,-1.7219624E-3,5.1642407E-2,5.3914655E-2,-3.204269E-2,8.77053E-3,-5.728784E-2,9.096139E-2,2.3905069E-2],"split_indices":[0,0,16,12,11,0,12,10,10,9,7,5,0,0,0,0,0,0,0,0,0,0,0,0,0],"split_type":[0,0,0,0,0,0,0,0,0,0,0,0,0,0,0,0,0,0,0,0,0,0,0,0,0],"sum_hessian":[6.3577816E1,5.3792904E1,9.784911E0,4.2848503E1,1.0944398E1,7.1431065E0,2.641805E0,1.4625516E1,2.8222988E1,3.5820694E0,7.362329E0,5.74826E0,1.3948466E0,1.0454441E0,1.5963609E0,1.1063441E1,3.5620742E0,2.320287E1,5.0201197E0,1.1193029E0,2.4627666E0,1.1782986E0,6.18403E0,2.4298146E0,3.3184452E0],"tree_param":{"num_deleted":"0","num_feature":"18","num_nodes":"25","size_leaf_vector":"1"}},{"base_weights":[1.0725087E-1,-2.3167472E-2,5.220794E-1,3.1588492E-1,-2.4924314E-1,7.1665436E-1,-3.9827627E-1,6.963865E-1,-3.5681E-1,-4.4049352E-1,4.3094587E-1,-3.077699E-1,9.776778E-1,1.2305605E-2,-3.93248E-2,-2.3075458E-2,4.4215616E-2,-4.0222075E-2,1.800377E-2,-3.9691437E-2,-1.3914624E-3,-1.0295665E-2,5.2804627E-2,-4.1352402E-2,1.6289143E-2,2.9159812E-2,8.578356E-2],"categories":[],"categories_nodes":[],"categories_segments":[],"categories_sizes":[],"default_left":[0,0,0,0,0,0,0,0,0,0,0,0,0,0,0,0,0,0,0,0,0,0,0,0,0,0,0],"id":18,"left_children":[1,3,5,7,9,11,13,15,17,19,21,23,25,-1,-1,-1,-1,-1,-1,-1,-1,-1,-1,-1,-1,-1,-1],"loss_changes":[3.795345E0,4.230188E0,3.288373E0,5.9071302E0,4.4895372E0,4.097873E0,1.0864649E0,3.5544157E0,3.0648856E0,3.8117056E0,3.3067112E0,1.4682658E0,2.3635788E0,0E0,0E0,0E0,0E0,0E0,0E0,0E0,0E0,0E0,0E0,0E0,0E0,0E0,0E0],"parents":[2147483647,0,0,1,1,2,2,3,3,4,4,5,5,6,6,7,7,8,8,9,9,10,10,11,11,12,12],"right_children":[2,4,6,8,10,12,14,16,18,20,22,24,26,-1,-1,-1,-1,-1,-1,-1,-1,-1,-1,-1,-1,-1,-1],"split_conditions":[2.4801106E0,5.243955E-1,2.0734128E-3,2.493205E-3,2.5151423E-3,1E1,2E0,1.3463659E-3,3.466549E-3,1.737153E-3,9.972861E-1,2.5587832E-3,3.1860475E-3,1.2305605E-2,-3.93248E-2,-2.3075458E-2,4.4215616E-2,-4.0222075E-2,1.800377E-2,-3.9691437E-2,-1.3914624E-3,-1.0295665E-2,5.2804627E-2,-4.1352402E-2,1.6289143E-2,2.9159812E-2,8.578356E-2],"split_indices":[6,6,3,12,10,16,17,3,12,13,6,12,13,0,0,0,0,0,0,0,0,0,0,0,0,0,0],"split_type":[0,0,0,0,0,0,0,0,0,0,0,0,0,0,0,0,0,0,0,0,0,0,0,0,0,0,0],"sum_hessian":[6.892906E1,5.3160145E1,1.5768915E1,2.1107439E1,3.2052708E1,1.3199666E1,2.5692492E0,1.3459193E1,7.648246E0,2.5293318E1,6.7593884E0,2.6439629E0,1.0555703E1,1.1035562E0,1.465693E0,1.6761112E0,1.1783082E1,4.6331315E0,3.0151143E0,1.3128579E1,1.2164739E1,3.6805234E0,3.0788648E0,1.2851796E0,1.3587832E0,8.045413E0,2.5102906E0],"tree_param":{"num_deleted":"0","num_feature":"18","num_nodes":"27","size_leaf_vector":"1"}},{"base_weights":[1.4412273E-2,-3.2211703E-1,1.9703564E-1,2.3250884E-1,-6.532892E-1,-2.7286085E-1,4.9541774E-1,-2.0999308E-1,9.7254235E-1,-2.9752633E-1,-9.8587334E-1,6.0125E-1,-8.2167524E-1,1.152802E-1,1.0734257E0,2.9223735E-2,-3.406197E-2,6.926456E-2,1.3018231E-2,-4.111272E-2,1.2116235E-2,-5.415055E-2,-1.1467214E-2,4.774425E-2,-1.278397E-2,2.6874388E-2,-5.5652287E-2,-1.1899504E-2,2.7914478E-2,1.023688E-2,7.810842E-2],"categories":[],"categories_nodes":[],"categories_segments":[],"categories_sizes":[],"default_left":[0,0,0,0,0,0,0,0,0,0,0,0,0,0,0,0,0,0,0,0,0,0,0,0,0,0,0,0,0,0,0],"id":19,"left_children":[1,3,5,7,9,11,13,15,17,19,21,23,25,27,29,-1,-1,-1,-1,-1,-1,-1,-1,-1,-1,-1,-1,-1,-1,-1,-1],"loss_changes":[4.171747E0,4.540734E0,6.297694E0,3.3711114E0,1.5079374E0,8.992343E0,5.8609395E0,2.9719024E0,7.5527215E-1,2.6885796E0,2.9805756E-1,2.4896808E0,5.0752373E0,2.8797135E0,4.2170496E0,0E0,0E0,0E0,0E0,0E0,0E0,0E0,0E0,0E0,0E0,0E0,0E0,0E0,0E0,0E0,0E0],"parents":[2147483647,0,0,1,1,2,2,3,3,4,4,5,5,6,6,7,7,8,8,9,9,10,10,11,11,12,12,13,13,14,14],"right_children":[2,4,6,8,10,12,14,16,18,20,22,24,26,28,30,-1,-1,-1,-1,-1,-1,-1,-1,-1,-1,-1,-1,-1,-1,-1,-1],"split_conditions":[1.8001795E-3,5.651123E-1,1.2573117E-3,3.532581E-1,1.7373724E-3,2.2824039E-4,3E0,1.1E1,2.4821525E0,1.7342918E-3,3.2910588E-3,1.8109856E-3,1.343724E-3,1.9330785E-3,1.0709529E-3,2.9223735E-2,-3.406197E-2,6.926456E-2,1.3018231E-2,-4.111272E-2,1.2116235E-2,-5.415055E-2,-1.1467214E-2,4.774425E-2,-1.278397E-2,2.6874388E-2,-5.5652287E-2,-1.1899504E-2,2.7914478E-2,1.023688E-2,7.810842E-2],"split_indices":[10,6,14,6,3,14,17,16,2,13,14,3,3,13,13,0,0,0,0,0,0,0,0,0,0,0,0,0,0,0,0],"split_type":[0,0,0,0,0,0,0,0,0,0,0,0,0,0,0,0,0,0,0,0,0,0,0,0,0,0,0,0,0,0,0],"sum_hessian":[6.584681E1,2.289437E1,4.2952442E1,8.670872E0,1.4223496E1,1.671498E1,2.6237463E1,5.8744764E0,2.7963958E0,7.7876697E0,6.435827E0,6.4100246E0,1.03049555E1,1.6551506E1,9.685957E0,2.0977068E0,3.7767696E0,1.172003E0,1.6243927E0,3.6838763E0,4.103793E0,5.321055E0,1.1147716E0,4.4565845E0,1.95344E0,1.670031E0,8.634924E0,9.465884E0,7.085622E0,3.9983044E0,5.6876526E0],"tree_param":{"num_deleted":"0","num_feature":"18","num_nodes":"31","size_leaf_vector":"1"}},{"base_weights":[-5.3424012E-2,-1.2648934E-1,9.597344E-1,-4.9101478E-1,7.417291E-2,-1.5067982E-2,7.3132485E-2,6.7860864E-2,-7.76422E-1,5.009505E-1,-2.0367275E-1,4.0169057E-2,-1.8800482E-2,2.0555994E-2,-4.6172448E-2,-8.907853E-4,5.1164825E-2,1.13172205E-2,-2.7808204E-2],"categories":[],"categories_nodes":[],"categories_segments":[],"categories_sizes":[],"default_left":[0,0,0,0,0,0,0,0,0,0,0,0,0,0,0,0,0,0,0],"id":20,"left_children":[1,3,5,7,9,-1,-1,11,13,15,17,-1,-1,-1,-1,-1,-1,-1,-1],"loss_changes":[5.1795197E0,4.762834E0,3.429614E0,3.7328668E0,5.146773E0,0E0,0E0,3.148655E0,3.0603037E0,4.6423564E0,4.1394725E0,0E0,0E0,0E0,0E0,0E0,0E0,0E0,0E0],"parents":[2147483647,0,0,1,1,2,2,3,3,4,4,7,7,8,8,9,9,10,10],"right_children":[2,4,6,8,10,-1,-1,12,14,16,18,-1,-1,-1,-1,-1,-1,-1,-1],"split_conditions":[5.586178E-3,1.7423518E-3,2.0040652E4,6.152513E-1,2.1833703E-3,-1.5067982E-2,7.3132485E-2,4.7205338E-1,-3.6169597E-4,1.711586E-3,2.0708484E4,4.0169057E-2,-1.8800482E-2,2.0555994E-2,-4.6172448E-2,-8.907853E-4,5.1164825E-2,1.13172205E-2,-2.7808204E-2],"split_indices":[12,10,0,6,10,0,0,5,11,14,0,0,0,0,0,0,0,0,0],"split_type":[0,0,0,0,0,0,0,0,0,0,0,0,0,0,0,0,0,0,0],"sum_hessian":[6.7328316E1,6.3615734E1,3.7125835E0,2.2072178E1,4.1543556E1,1.1727096E0,2.539874E0,7.719102E0,1.4353076E1,1.6064743E1,2.5478813E1,2.600301E0,5.118801E0,1.3833646E0,1.2969711E1,8.544597E0,7.5201464E0,1.1638477E1,1.3840335E1],"tree_param":{"num_deleted":"0","num_feature":"18","num_nodes":"19","size_leaf_vector":"1"}},{"base_weights":[9.535827E-2,-5.4945545E-3,9.3572557E-1,7.667136E-2,-7.102442E-1,1.5273652E0,-1.51486E-1,5.7605887E-3,9.072162E-1,-4.0693652E-2,-5.1653534E-2,8.749885E-2,2.4542179E-2,3.334012E-2,-4.0325105E-2,7.552568E-3,-4.3158192E-2,4.8806146E-3,5.9288513E-2,-3.3753272E-2,3.0034635E-2],"categories":[],"categories_nodes":[],"categories_segments":[],"categories_sizes":[],"default_left":[0,0,0,0,0,0,0,0,0,0,0,0,0,0,0,0,0,0,0,0,0],"id":21,"left_children":[1,3,5,7,9,11,13,15,17,19,-1,-1,-1,-1,-1,-1,-1,-1,-1,-1,-1],"loss_changes":[5.716976E0,3.596383E0,4.8801403E0,3.274159E0,1.3594978E0,2.4178123E-1,2.3905222E0,6.734167E0,8.7060905E-1,1.6873076E0,0E0,0E0,0E0,0E0,0E0,0E0,0E0,0E0,0E0,0E0,0E0],"parents":[2147483647,0,0,1,1,2,2,3,3,4,4,5,5,6,6,7,7,8,8,9,9],"right_children":[2,4,6,8,10,12,14,16,18,20,-1,-1,-1,-1,-1,-1,-1,-1,-1,-1,-1],"split_conditions":[1.2941631E1,9.723668E0,3.4318205E-3,5.586178E-3,7.6947665E-1,1.6855745E-3,1.9783994E-11,3.1191276E-3,2.0040652E4,5.032472E-1,-5.1653534E-2,8.749885E-2,2.4542179E-2,3.334012E-2,-4.0325105E-2,7.552568E-3,-4.3158192E-2,4.8806146E-3,5.9288513E-2,-3.3753272E-2,3.0034635E-2],"split_indices":[2,2,11,12,5,3,8,12,0,5,0,0,0,0,0,0,0,0,0,0,0],"split_type":[0,0,0,0,0,0,0,0,0,0,0,0,0,0,0,0,0,0,0,0,0],"sum_hessian":[6.639357E1,6.016643E1,6.227136E0,5.4682297E1,5.4841356E0,3.7704713E0,2.4566646E0,5.130858E1,3.3737195E0,2.1503363E0,3.3337991E0,2.5372372E0,1.2332343E0,1.0842081E0,1.3724564E0,4.466621E1,6.6423664E0,1.2093186E0,2.1644008E0,1.0546803E0,1.0956558E0],"tree_param":{"num_deleted":"0","num_feature":"18","num_nodes":"21","size_leaf_vector":"1"}},{"base_weights":[3.721472E-2,9.4134204E-2,-7.8592E-1,-2.3144805E-1,2.7224496E-1,-4.571868E-2,-9.106642E-3,1.06074676E-1,-5.99768E-1,-1.4317843E-1,5.0899976E-1,3.3956207E-2,-1.0564058E-2,1.5876679E-2,-4.2119134E-2,3.0037543E-2,-3.159121E-2,-7.870213E-3,4.1627403E-2],"categories":[],"categories_nodes":[],"categories_segments":[],"categories_sizes":[],"default_left":[0,0,0,0,0,0,0,0,0,0,0,0,0,0,0,0,0,0,0],"id":22,"left_children":[1,3,5,7,9,-1,-1,11,13,15,17,-1,-1,-1,-1,-1,-1,-1,-1],"loss_changes":[3.2174108E0,3.753815E0,1.7831159E-1,2.9286513E0,4.16434E0,0E0,0E0,2.485058E0,2.7535224E0,6.1529613E0,5.8917236E0,0E0,0E0,0E0,0E0,0E0,0E0,0E0,0E0],"parents":[2147483647,0,0,1,1,2,2,3,3,4,4,7,7,8,8,9,9,10,10],"right_children":[2,4,6,8,10,-1,-1,12,14,16,18,-1,-1,-1,-1,-1,-1,-1,-1],"split_conditions":[2.2913148E-3,1.7967111E-3,2.7681738E-3,1.2E1,1.2573117E-3,-4.571868E-2,-9.106642E-3,1.9968346E4,7.2429236E-4,2.2824039E-4,3.709151E-13,3.3956207E-2,-1.0564058E-2,1.5876679E-2,-4.2119134E-2,3.0037543E-2,-3.159121E-2,-7.870213E-3,4.1627403E-2],"split_indices":[3,10,12,16,14,0,0,0,11,14,8,0,0,0,0,0,0,0,0],"split_type":[0,0,0,0,0,0,0,0,0,0,0,0,0,0,0,0,0,0,0],"sum_hessian":[6.609216E1,6.2645863E1,3.4463005E0,2.2046295E1,4.0599567E1,2.4175732E0,1.0287273E0,1.1875643E1,1.0170652E1,1.4882004E1,2.5717562E1,3.826388E0,8.049254E0,2.0627615E0,8.107891E0,5.8089147E0,9.07309E0,8.573157E0,1.7144405E1],"tree_param":{"num_deleted":"0","num_feature":"18","num_nodes":"19","size_leaf_vector":"1"}},{"base_weights":[7.993334E-3,-5.6776017E-2,8.8804245E-1,-7.220805E-1,1.9546479E-2,7.280667E-2,-1.7118987E-2,-5.177737E-2,1.71241E-3,4.5337045E-1,-1.4670658E-1,6.2289448E-3,6.870661E-2,-1.5824424E-2,2.5966337E-2],"categories":[],"categories_nodes":[],"categories_segments":[],"categories_sizes":[],"default_left":[0,0,0,0,0,0,0,0,0,0,0,0,0,0,0],"id":23,"left_children":[1,3,5,7,9,-1,-1,-1,-1,11,13,-1,-1,-1,-1],"loss_changes":[3.9752948E0,3.3185644E0,3.8400118E0,1.6295128E0,4.347339E0,0E0,0E0,0E0,0E0,4.8810573E0,5.101992E0,0E0,0E0,0E0,0E0],"parents":[2147483647,0,0,1,1,2,2,3,3,4,4,9,9,10,10],"right_children":[2,4,6,8,10,-1,-1,-1,-1,12,14,-1,-1,-1,-1],"split_conditions":[5.586178E-3,8.854489E-1,2.0733464E-3,1.727011E-3,9.997835E-1,7.280667E-2,-1.7118987E-2,-5.177737E-2,1.71241E-3,9.991736E-1,3.0622657E-3,6.2289448E-3,6.870661E-2,-1.5824424E-2,2.5966337E-2],"split_indices":[12,7,13,14,7,0,0,0,0,7,11,0,0,0,0],"split_type":[0,0,0,0,0,0,0,0,0,0,0,0,0,0,0],"sum_hessian":[6.785721E1,6.4076805E1,3.7804022E0,5.7235556E0,5.835325E1,2.4607992E0,1.3196031E0,3.7854624E0,1.9380932E0,1.5688466E1,4.266478E1,1.2396974E1,3.2914922E0,3.441635E1,8.248429E0],"tree_param":{"num_deleted":"0","num_feature":"18","num_nodes":"15","size_leaf_vector":"1"}},{"base_weights":[4.275367E-2,-3.1899367E-2,5.9643626E-2,-5.681051E-1,6.949294E-2,4.1360576E-3,-8.4466434E-1,-2.4899004E-1,2.6429805E-1,2.4248092E-2,-3.657088E-2,-5.3909805E-2,1.2301375E-2,5.9137106E-2,-2.0122988E-2,5.8861235E-3,5.4541893E-2],"categories":[],"categories_nodes":[],"categories_segments":[],"categories_sizes":[],"default_left":[0,0,0,0,0,0,0,0,0,0,0,0,0,0,0,0,0],"id":24,"left_children":[1,3,-1,5,7,9,11,13,15,-1,-1,-1,-1,-1,-1,-1,-1],"loss_changes":[5.9678845E0,3.6183813E0,0E0,1.677422E0,3.5557523E0,1.925521E0,2.0828218E0,5.2800407E0,4.158815E0,0E0,0E0,0E0,0E0,0E0,0E0,0E0,0E0],"parents":[2147483647,0,0,1,1,3,3,4,4,5,5,6,6,7,7,8,8],"right_children":[2,4,-1,6,8,10,12,14,16,-1,-1,-1,-1,-1,-1,-1,-1],"split_conditions":[5.842925E-3,3.6674167E-4,5.9643626E-2,4.3926653E-1,2E0,6.8703365E0,3.4418905E-3,-1.1381511E-4,3.4682603E0,2.4248092E-2,-3.657088E-2,-5.3909805E-2,1.2301375E-2,5.9137106E-2,-2.0122988E-2,5.8861235E-3,5.4541893E-2],"split_indices":[14,12,0,6,17,2,13,14,5,0,0,0,0,0,0,0,0],"split_type":[0,0,0,0,0,0,0,0,0,0,0,0,0,0,0,0,0],"sum_hessian":[6.806408E1,6.48284E1,3.2356808E0,9.577176E0,5.5251225E1,3.441421E0,6.1357546E0,2.0863596E1,3.4387627E1,2.2870674E0,1.1543536E0,5.063128E0,1.072627E0,1.3705877E0,1.9493008E1,3.0178337E1,4.2092896E0],"tree_param":{"num_deleted":"0","num_feature":"18","num_nodes":"17","size_leaf_vector":"1"}},{"base_weights":[-4.9067006E-2,-6.505559E-1,5.903757E-2,-9.8885024E-1,4.7074094E-2,4.0334767E-1,-1.3913962E-1,-9.027145E-3,-5.4555386E-2,-2.666581E-2,3.6262274E-2,5.0848997E-1,-3.823584E-2,-2.613783E-1,6.636012E-1,3.6249183E-2,-5.1340093E-3,-2.371648E-2,1.0046153E-2,5.968867E-2,-3.2288067E-3],"categories":[],"categories_nodes":[],"categories_segments":[],"categories_sizes":[],"default_left":[0,0,0,0,0,0,0,0,0,0,0,0,0,0,0,0,0,0,0,0,0],"id":25,"left_children":[1,3,5,7,9,11,13,-1,-1,-1,-1,15,-1,17,19,-1,-1,-1,-1,-1,-1],"loss_changes":[4.505437E0,2.5362105E0,4.0921364E0,3.9396858E-1,2.1184628E0,3.0740867E0,3.9301882E0,0E0,0E0,0E0,0E0,2.8079877E0,0E0,3.4368947E0,2.139429E0,0E0,0E0,0E0,0E0,0E0,0E0],"parents":[2147483647,0,0,1,1,2,2,3,3,4,4,5,5,6,6,11,11,13,13,14,14],"right_children":[2,4,6,8,10,12,14,-1,-1,-1,-1,16,-1,18,20,-1,-1,-1,-1,-1,-1],"split_conditions":[3.6674167E-4,2.323879E-3,3.0718753E0,7.320256E-4,2.074417E-3,5.502244E0,3.508932E0,-9.027145E-3,-5.4555386E-2,-2.666581E-2,3.6262274E-2,2.800499E-3,-3.823584E-2,1.56738E0,1.1965696E0,3.6249183E-2,-5.1340093E-3,-2.371648E-2,1.0046153E-2,5.968867E-2,-3.2288067E-3],"split_indices":[12,14,2,13,13,5,5,0,0,0,0,13,0,6,6,0,0,0,0,0,0],"split_type":[0,0,0,0,0,0,0,0,0,0,0,0,0,0,0,0,0,0,0,0,0],"sum_hessian":[6.769849E1,9.54922E0,5.814926E1,6.149679E0,3.3995414E0,2.0864428E1,3.7284836E1,1.0011932E0,5.148486E0,1.9469264E0,1.452615E0,1.965947E1,1.2049569E0,3.2942806E1,4.3420277E0,1.4379592E1,5.279878E0,2.2535975E1,1.0406833E1,2.1426241E0,2.1994035E0],"tree_param":{"num_deleted":"0","num_feature":"18","num_nodes":"21","size_leaf_vector":"1"}},{"base_weights":[6.128028E-2,-4.6875175E-2,1.14757E-1,2.5080824E-1,-3.5056183E-1,1.3842373E-1,9.727677E-1,4.960917E-2,-5.782809E-1,1.3137482E-2,-3.9287385E-2,6.718917E-2,2.2739111E-3,-4.374991E-2,4.55794E-3],"categories":[],"categories_nodes":[],"categories_segments":[],"categories_sizes":[],"default_left":[0,0,0,0,0,0,0,0,0,0,0,0,0,0,0],"id":26,"left_children":[1,-1,3,5,7,9,11,-1,13,-1,-1,-1,-1,-1,-1],"loss_changes":[3.640875E0,0E0,4.119394E0,3.9106028E0,5.106469E0,5.2972984E0,2.1922545E0,0E0,2.7228432E0,0E0,0E0,0E0,0E0,0E0,0E0],"parents":[2147483647,0,0,2,2,3,3,4,4,5,5,6,6,8,8],"right_children":[2,-1,4,6,8,10,12,-1,14,-1,-1,-1,-1,-1,-1],"split_conditions":[1.5062284E-38,-4.6875175E-2,1.9841215E-3,1.3606749E1,1E1,9.622654E0,3.4318205E-3,4.960917E-2,2.3362013E-3,1.3137482E-2,-3.9287385E-2,6.718917E-2,2.2739111E-3,-4.374991E-2,4.55794E-3],"split_indices":[9,0,3,2,16,2,11,0,10,0,0,0,0,0,0],"split_type":[0,0,0,0,0,0,0,0,0,0,0,0,0,0,0],"sum_hessian":[6.515201E1,2.4709556E0,6.2681053E1,4.885708E1,1.3823976E1,4.3307335E1,5.5497446E0,1.5177163E0,1.2306259E1,3.8802982E1,4.504353E0,3.643E0,1.9067447E0,8.314116E0,3.9921439E0],"tree_param":{"num_deleted":"0","num_feature":"18","num_nodes":"15","size_leaf_vector":"1"}},{"base_weights":[3.5679422E-2,-3.7913308E-2,5.448108E-1,-3.2211974E-1,9.75716E-2,7.549197E-1,-2.0318698E-2,-2.738315E-2,-9.65883E-1,1.89089E-1,-6.473845E-1,2.3900454E-1,1.0460635E0,1.6758313E-2,-2.6817998E-2,-5.303979E-2,-1.6919127E-2,-9.356341E-3,2.1754913E-2,1.129198E-2,-4.71776E-2,4.510547E-2,-1.7577754E-2,7.272646E-3,6.462566E-2],"categories":[],"categories_nodes":[],"categories_segments":[],"categories_sizes":[],"default_left":[0,0,0,0,0,0,0,0,0,0,0,0,0,0,0,0,0,0,0,0,0,0,0,0,0],"id":27,"left_children":[1,3,5,7,9,11,-1,13,15,17,19,21,23,-1,-1,-1,-1,-1,-1,-1,-1,-1,-1,-1,-1],"loss_changes":[2.5994592E0,2.3829327E0,2.0569224E0,3.7582672E0,2.9941545E0,8.799372E-1,0E0,2.8945022E0,1.2395382E-2,3.6250343E0,1.4634142E0,1.8874422E0,8.1363344E-1,0E0,0E0,0E0,0E0,0E0,0E0,0E0,0E0,0E0,0E0,0E0,0E0],"parents":[2147483647,0,0,1,1,2,2,3,3,4,4,5,5,7,7,8,8,9,9,10,10,11,11,12,12],"right_children":[2,4,6,8,10,12,-1,14,16,18,20,22,24,-1,-1,-1,-1,-1,-1,-1,-1,-1,-1,-1,-1],"split_conditions":[3.799719E-3,2.1713774E-12,7.617718E-3,1.7486501E-3,7.345375E0,1.2E1,-2.0318698E-2,2.0877428E4,4E0,2E0,1E0,5.914225E-1,1.9070475E4,1.6758313E-2,-2.6817998E-2,-5.303979E-2,-1.6919127E-2,-9.356341E-3,2.1754913E-2,1.129198E-2,-4.71776E-2,4.510547E-2,-1.7577754E-2,7.272646E-3,6.462566E-2],"split_indices":[14,9,14,3,9,16,0,0,17,17,17,6,0,0,0,0,0,0,0,0,0,0,0,0,0],"split_type":[0,0,0,0,0,0,0,0,0,0,0,0,0,0,0,0,0,0,0,0,0,0,0,0,0],"sum_hessian":[6.782616E1,6.0068977E1,7.7571774E0,1.8946793E1,4.1122185E1,6.522703E0,1.2344744E0,1.3711664E1,5.235128E0,3.72876E1,3.8345842E0,3.0099325E0,3.5127707E0,8.20713E0,5.504534E0,3.947533E0,1.2875952E0,1.4837039E1,2.2450563E1,1.0313116E0,2.8032727E0,1.1693678E0,1.8405646E0,1.0963887E0,2.416382E0],"tree_param":{"num_deleted":"0","num_feature":"18","num_nodes":"25","size_leaf_vector":"1"}},{"base_weights":[4.524541E-2,-2.3169436E-2,1.023791E0,-9.9506065E-2,6.642438E-1,5.9702336E-3,6.500516E-2,4.15492E-1,-2.1250519E-1,-6.8440676E-2,1.168677E0,5.3587567E-2,-1.5395996E-2,-1.9150788E-2,1.0791104E-2,-4.110098E-2,3.966714E-2,6.814172E-2,1.9047175E-2],"categories":[],"categories_nodes":[],"categories_segments":[],"categories_sizes":[],"default_left":[0,0,0,0,0,0,0,0,0,0,0,0,0,0,0,0,0,0,0],"id":28,"left_children":[1,3,5,7,9,-1,-1,11,13,15,17,-1,-1,-1,-1,-1,-1,-1,-1],"loss_changes":[4.474092E0,3.3777776E0,9.3581533E-1,3.444467E0,2.4594479E0,0E0,0E0,5.417203E0,3.5851126E0,2.9704547E0,7.247114E-2,0E0,0E0,0E0,0E0,0E0,0E0,0E0,0E0],"parents":[2147483647,0,0,1,1,2,2,3,3,4,4,7,7,8,8,9,9,10,10],"right_children":[2,4,6,8,10,-1,-1,12,14,16,18,-1,-1,-1,-1,-1,-1,-1,-1],"split_conditions":[5.586178E-3,4.4852733E-3,2.1966643E0,2.4211434E-1,8.881954E-1,5.9702336E-3,6.500516E-2,1.982847E-3,1.9946804E0,1.7398464E-3,2.0461584E4,5.3587567E-2,-1.5395996E-2,-1.9150788E-2,1.0791104E-2,-4.110098E-2,3.966714E-2,6.814172E-2,1.9047175E-2],"split_indices":[12,14,2,6,5,0,0,13,5,3,0,0,0,0,0,0,0,0,0],"split_type":[0,0,0,0,0,0,0,0,0,0,0,0,0,0,0,0,0,0,0],"sum_hessian":[6.5476006E1,6.210992E1,3.3660822E0,5.6671814E1,5.4381084E0,1.1229001E0,2.243182E0,9.715606E0,4.6956207E1,2.569808E0,2.8683007E0,4.841766E0,4.8738394E0,3.3661762E1,1.3294446E1,1.395589E0,1.1742189E0,1.7154205E0,1.1528802E0],"tree_param":{"num_deleted":"0","num_feature":"18","num_nodes":"19","size_leaf_vector":"1"}},{"base_weights":[5.8368117E-2,1.626485E-4,9.9476415E-1,2.671389E-1,-1.7237854E-1,5.95199E-2,1.7004913E-2,9.3734807E-1,4.5192868E-2,-3.1386116E-1,6.7425925E-1,6.60005E-2,-7.186649E-3,1.6740574E-2,-2.9825566E-2,-3.036238E-2,-2.1726107E-3,6.744812E-2,-2.9044298E-3],"categories":[],"categories_nodes":[],"categories_segments":[],"categories_sizes":[],"default_left":[0,0,0,0,0,0,0,0,0,0,0,0,0,0,0,0,0,0,0],"id":29,"left_children":[1,3,5,7,9,-1,-1,11,13,15,17,-1,-1,-1,-1,-1,-1,-1,-1],"loss_changes":[3.7806792E0,3.100558E0,1.1505556E-1,3.888113E0,5.109162E0,0E0,0E0,2.8881392E0,4.0840664E0,2.806988E0,3.1279886E0,0E0,0E0,0E0,0E0,0E0,0E0,0E0,0E0],"parents":[2147483647,0,0,1,1,2,2,3,3,4,4,7,7,8,8,9,9,10,10],"right_children":[2,4,6,8,10,-1,-1,12,14,16,18,-1,-1,-1,-1,-1,-1,-1,-1],"split_conditions":[5.842925E-3,3.1309757E0,2.493205E-3,3.9049459E-1,3.508932E0,5.95199E-2,1.7004913E-2,9.6405166E-1,2.0733464E-3,2.070581E4,1.1965696E0,6.60005E-2,-7.186649E-3,1.6740574E-2,-2.9825566E-2,-3.036238E-2,-2.1726107E-3,6.744812E-2,-2.9044298E-3],"split_indices":[14,2,11,5,5,0,0,6,11,0,6,0,0,0,0,0,0,0,0],"split_type":[0,0,0,0,0,0,0,0,0,0,0,0,0,0,0,0,0,0,0],"sum_hessian":[6.836894E1,6.530954E1,3.059404E0,2.542331E1,3.988623E1,1.7254564E0,1.3339475E0,5.522806E0,1.9900501E1,3.471436E1,5.171872E0,3.9157643E0,1.607042E0,1.4041456E1,5.859046E0,1.605234E1,1.866202E1,2.253646E0,2.918226E0],"tree_param":{"num_deleted":"0","num_feature":"18","num_nodes":"19","size_leaf_vector":"1"}},{"base_weights":[2.9496973E-2,9.650137E-2,-5.609258E-1,-2.414504E-1,2.7624783E-1,2.6619308E-2,-4.825662E-2,3.5211763E-1,-4.3536133E-1,-1.22328624E-1,4.80703E-1,-3.2832514E-2,2.5225455E-2,4.8626106E-2,-3.9739963E-2,7.0016035E-3,-3.74646E-2,3.497256E-2,-3.011022E-2,-6.973012E-3,3.8059402E-2],"categories":[],"categories_nodes":[],"categories_segments":[],"categories_sizes":[],"default_left":[0,0,0,0,0,0,0,0,0,0,0,0,0,0,0,0,0,0,0,0,0],"id":30,"left_children":[1,3,5,7,9,11,-1,13,15,17,19,-1,-1,-1,-1,-1,-1,-1,-1,-1,-1],"loss_changes":[2.7466617E0,3.8315287E0,1.7079351E0,2.6914916E0,3.3938034E0,1.59173E0,0E0,5.0302105E0,3.1881878E0,6.207344E0,4.846588E0,0E0,0E0,0E0,0E0,0E0,0E0,0E0,0E0,0E0,0E0],"parents":[2147483647,0,0,1,1,2,2,3,3,4,4,5,5,7,7,8,8,9,9,10,10],"right_children":[2,4,6,8,10,12,-1,14,16,18,20,-1,-1,-1,-1,-1,-1,-1,-1,-1,-1],"split_conditions":[2.1367797E-3,1.7967111E-3,3.312099E0,1.0774428E-3,1.241036E-3,1.1652521E0,-4.825662E-2,2.074417E-3,2.0132625E4,1.8057306E-4,3.709151E-13,-3.2832514E-2,2.5225455E-2,4.8626106E-2,-3.9739963E-2,7.0016035E-3,-3.74646E-2,3.497256E-2,-3.011022E-2,-6.973012E-3,3.8059402E-2],"split_indices":[3,10,2,10,14,2,0,12,0,14,8,0,0,0,0,0,0,0,0,0,0],"split_type":[0,0,0,0,0,0,0,0,0,0,0,0,0,0,0,0,0,0,0,0,0],"sum_hessian":[6.706039E1,6.0976944E1,6.0834413E0,2.1052198E1,3.9924747E1,2.8601458E0,3.2232952E0,4.9830465E0,1.606915E1,1.3672497E1,2.625225E1,1.023179E0,1.8369669E0,3.3324642E0,1.6505826E0,5.867938E0,1.0201214E1,4.871891E0,8.800606E0,8.332207E0,1.7920044E1],"tree_param":{"num_deleted":"0","num_feature":"18","num_nodes":"21","size_leaf_vector":"1"}},{"base_weights":[-6.801586E-2,1.9768355E-2,-7.127243E-1,-1.636088E-1,3.2848433E-1,-5.4678757E-2,2.2730537E-2,-2.532433E-1,8.078084E-1,-2.3544956E-2,8.890541E-1,-3.1337213E-2,-1.5832337E-4,5.559007E-2,3.3839785E-3,2.0274913E-2,-4.373539E-2,-8.835017E-3,5.816534E-2],"categories":[],"categories_nodes":[],"categories_segments":[],"categories_sizes":[],"default_left":[0,0,0,0,0,0,0,0,0,0,0,0,0,0,0,0,0,0,0],"id":31,"left_children":[1,3,5,7,9,-1,-1,11,13,15,17,-1,-1,-1,-1,-1,-1,-1,-1],"loss_changes":[3.8144104E0,3.4546645E0,4.0868487E0,3.5442898E0,4.504267E0,0E0,0E0,3.3490462E0,7.074714E-1,5.806769E0,2.7746282E0,0E0,0E0,0E0,0E0,0E0,0E0,0E0,0E0],"parents":[2147483647,0,0,1,1,2,2,3,3,4,4,7,7,8,8,9,9,10,10],"right_children":[2,4,6,8,10,-1,-1,12,14,16,18,-1,-1,-1,-1,-1,-1,-1,-1],"split_conditions":[3.6006845E-3,1.9513752E-3,2.4801106E0,5.586178E-3,2.323879E-3,-5.4678757E-2,2.2730537E-2,2E0,1.0565693E-3,1.7821194E-3,1.3577343E-3,-3.1337213E-2,-1.5832337E-4,5.559007E-2,3.3839785E-3,2.0274913E-2,-4.373539E-2,-8.835017E-3,5.816534E-2],"split_indices":[13,13,6,12,14,0,0,17,14,3,10,0,0,0,0,0,0,0,0],"split_type":[0,0,0,0,0,0,0,0,0,0,0,0,0,0,0,0,0,0,0],"sum_hessian":[6.614914E1,5.9074787E1,7.0743504E0,3.7355606E1,2.1719181E1,5.3817167E0,1.6926337E0,3.4876766E1,2.4788392E0,1.3929603E1,7.789579E0,1.338278E1,2.1493988E1,1.4011657E0,1.0776733E0,9.60941E0,4.3201923E0,1.6670548E0,6.1225243E0],"tree_param":{"num_deleted":"0","num_feature":"18","num_nodes":"19","size_leaf_vector":"1"}},{"base_weights":[-2.627882E-3,-5.647501E-1,9.87803E-2,-9.504379E-1,2.689332E-4,2.2625823E-1,-3.0354545E-1,-5.258406E-2,-1.2056257E-2,5.6363976E-1,-3.0069223E-2,3.7465934E-2,5.917025E-1,6.2890655E-1,-5.0918657E-1,5.5314552E-2,-1.3092495E-2,1.2637255E-2,-2.5543619E-2,-8.271823E-3,4.382213E-2,9.3536535E-3,3.8162895E-2,-3.9035217E-3,-4.151229E-2],"categories":[],"categories_nodes":[],"categories_segments":[],"categories_sizes":[],"default_left":[0,0,0,0,0,0,0,0,0,0,0,0,0,0,0,0,0,0,0,0,0,0,0,0,0],"id":32,"left_children":[1,3,5,7,9,11,13,-1,-1,15,-1,17,19,21,23,-1,-1,-1,-1,-1,-1,-1,-1,-1,-1],"loss_changes":[3.8898668E0,2.2728047E0,3.034737E0,1.9150972E-1,2.1118062E0,3.047306E0,3.0703487E0,0E0,0E0,1.7308809E0,0E0,3.7180085E0,3.3975935E0,3.7605762E-2,1.638128E0,0E0,0E0,0E0,0E0,0E0,0E0,0E0,0E0,0E0,0E0],"parents":[2147483647,0,0,1,1,2,2,3,3,4,4,5,5,6,6,9,9,11,11,12,12,13,13,14,14],"right_children":[2,4,6,8,10,12,14,-1,-1,16,-1,18,20,22,24,-1,-1,-1,-1,-1,-1,-1,-1,-1,-1],"split_conditions":[4.0271433E-4,1.6420812E-3,1.974526E-3,2.1344615E4,2.020487E4,1.5706795E0,1E1,-5.258406E-2,-1.2056257E-2,3E0,-3.0069223E-2,9.6405166E-1,3.380653E-19,2.5418354E-3,2.0964459E4,5.5314552E-2,-1.3092495E-2,1.2637255E-2,-2.5543619E-2,-8.271823E-3,4.382213E-2,9.3536535E-3,3.8162895E-2,-3.9035217E-3,-4.151229E-2],"split_indices":[12,3,3,0,0,6,16,0,0,17,0,6,8,11,0,0,0,0,0,0,0,0,0,0,0],"split_type":[0,0,0,0,0,0,0,0,0,0,0,0,0,0,0,0,0,0,0,0,0,0,0,0,0],"sum_hessian":[6.626011E1,9.428317E0,5.683179E1,5.1979847E0,4.2303324E0,4.3489616E1,1.3342172E1,4.1263385E0,1.0716461E0,2.2172995E0,2.013033E0,2.9402502E1,1.4087116E1,2.0388787E0,1.1303293E1,1.1326001E0,1.0846995E0,2.1500439E1,7.902062E0,3.9644432E0,1.0122673E1,1.033263E0,1.0056157E0,5.355341E0,5.9479523E0],"tree_param":{"num_deleted":"0","num_feature":"18","num_nodes":"25","size_leaf_vector":"1"}},{"base_weights":[-1.2215289E-2,-8.436615E-2,5.982114E-1,-9.264296E-3,-7.015268E-1,1.0943729E0,-3.7636885E-1,-1.3088292E-1,4.174518E-1,-1.21934935E-1,-4.9529936E-2,7.019868E-2,1.2145448E-2,8.635717E-3,-3.657346E-2,-1.0272764E-2,3.1779394E-2,5.2860793E-2,-3.7350021E-3,-3.5791725E-2,2.7815571E-2],"categories":[],"categories_nodes":[],"categories_segments":[],"categories_sizes":[],"default_left":[0,0,0,0,0,0,0,0,0,0,0,0,0,0,0,0,0,0,0,0,0],"id":33,"left_children":[1,3,5,7,9,11,13,15,17,19,-1,-1,-1,-1,-1,-1,-1,-1,-1,-1,-1],"loss_changes":[2.9698906E0,2.7817137E0,3.85972E0,2.890423E0,9.703841E-1,9.7195387E-1,7.404278E-1,2.6046293E0,3.9701216E0,1.7305914E0,0E0,0E0,0E0,0E0,0E0,0E0,0E0,0E0,0E0,0E0,0E0],"parents":[2147483647,0,0,1,1,2,2,3,3,4,4,5,5,6,6,7,7,8,8,9,9],"right_children":[2,4,6,8,10,12,14,16,18,20,-1,-1,-1,-1,-1,-1,-1,-1,-1,-1,-1],"split_conditions":[1.2941631E1,9.723668E0,3.4318205E-3,2.5971113E-3,7.6947665E-1,2.1063428E4,1.9603227E4,8.201615E0,6.860554E-1,1.3E1,-4.9529936E-2,7.019868E-2,1.2145448E-2,8.635717E-3,-3.657346E-2,-1.0272764E-2,3.1779394E-2,5.2860793E-2,-3.7350021E-3,-3.5791725E-2,2.7815571E-2],"split_indices":[2,2,11,10,5,0,0,2,5,16,0,0,0,0,0,0,0,0,0,0,0],"split_type":[0,0,0,0,0,0,0,0,0,0,0,0,0,0,0,0,0,0,0,0,0],"sum_hessian":[6.5285995E1,5.915573E1,6.1302633E0,5.3642967E1,5.5127645E0,3.9807408E0,2.1495225E0,4.2284668E1,1.1358301E1,2.3076732E0,3.2050912E0,2.4434018E0,1.5373389E0,1.0458962E0,1.1036265E0,3.920248E1,3.0821857E0,4.4393272E0,6.918974E0,1.2007922E0,1.106881E0],"tree_param":{"num_deleted":"0","num_feature":"18","num_nodes":"21","size_leaf_vector":"1"}},{"base_weights":[-5.176491E-3,-1.4562114E-1,4.452021E-1,-9.393699E-1,-2.623261E-2,1.1229901E0,7.382812E-2,-5.1775422E-2,-1.1944454E-2,5.6929624E-1,-2.3535055E-1,1.3880783E0,1.5005588E-3,-5.117776E-1,5.872793E-1,5.0789725E-2,1.265199E-3,-2.4904814E-2,1.737421E-3,8.195426E-2,2.1248253E-2,1.2906837E-2,-4.2115692E-2,4.2177383E-2,-8.603666E-3],"categories":[],"categories_nodes":[],"categories_segments":[],"categories_sizes":[],"default_left":[0,0,0,0,0,0,0,0,0,0,0,0,0,0,0,0,0,0,0,0,0,0,0,0,0],"id":34,"left_children":[1,3,5,7,9,11,13,-1,-1,15,17,19,-1,21,23,-1,-1,-1,-1,-1,-1,-1,-1,-1,-1],"loss_changes":[4.1786957E0,4.7449803E0,3.8706584E0,1.9385147E-1,5.7106285E0,1.5488024E0,3.6733756E0,0E0,0E0,2.8720253E0,2.4195054E0,3.661127E-1,0E0,1.6870266E0,1.398854E0,0E0,0E0,0E0,0E0,0E0,0E0,0E0,0E0,0E0,0E0],"parents":[2147483647,0,0,1,1,2,2,3,3,4,4,5,5,6,6,9,9,10,10,11,11,13,13,14,14],"right_children":[2,4,6,8,10,12,14,-1,-1,16,18,20,-1,22,24,-1,-1,-1,-1,-1,-1,-1,-1,-1,-1],"split_conditions":[2.6239266E0,9.1991407E-1,3.5941195E0,1.1582148E1,9.9990845E-1,3.0730972E-3,1.1866293E1,-5.1775422E-2,-1.1944454E-2,6.347504E-1,1.7372245E-3,2.085417E4,1.5005588E-3,6.322921E-4,1.3E1,5.0789725E-2,1.265199E-3,-2.4904814E-2,1.737421E-3,8.195426E-2,2.1248253E-2,1.2906837E-2,-4.2115692E-2,4.2177383E-2,-8.603666E-3],"split_indices":[6,7,6,2,7,12,6,0,0,6,13,0,0,14,16,0,0,0,0,0,0,0,0,0,0],"split_type":[0,0,0,0,0,0,0,0,0,0,0,0,0,0,0,0,0,0,0,0,0,0,0,0,0],"sum_hessian":[6.403798E1,4.9331326E1,1.47066555E1,5.5518627E0,4.3779465E1,4.489348E0,1.0217307E1,4.461285E0,1.0905778E0,1.0930129E1,3.2849335E1,3.3957553E0,1.0935928E0,4.774787E0,5.4425206E0,5.5266585E0,5.40347E0,1.6223442E1,1.6625895E1,2.1369586E0,1.2587967E0,1.4999672E0,3.2748196E0,3.9863272E0,1.4561934E0],"tree_param":{"num_deleted":"0","num_feature":"18","num_nodes":"25","size_leaf_vector":"1"}},{"base_weights":[4.4502087E-2,-4.4433743E-1,1.1865131E-1,-7.6087636E-1,1.5657125E-1,-1.1922437E-1,2.8177693E-1,5.5102073E-3,-4.968415E-2,2.9548723E-2,-1.1936116E-2,6.1069753E-2,-3.1153545E-1,4.4201693E-1,-3.4126827E-1,1.3775761E-3,-3.64127E-2,-2.2570318E-2,2.9241396E-2,3.419501E-2,-2.9826162E-2],"categories":[],"categories_nodes":[],"categories_segments":[],"categories_sizes":[],"default_left":[0,0,0,0,0,0,0,0,0,0,0,0,0,0,0,0,0,0,0,0,0],"id":35,"left_children":[1,3,5,7,9,11,13,-1,-1,-1,-1,-1,15,17,19,-1,-1,-1,-1,-1,-1],"loss_changes":[2.5016847E0,1.8518094E0,2.3406181E0,1.3540547E0,8.23176E-1,6.7970963E0,3.7015986E0,0E0,0E0,0E0,0E0,0E0,3.208262E0,3.9290957E0,2.459558E0,0E0,0E0,0E0,0E0,0E0,0E0],"parents":[2147483647,0,0,1,1,2,2,3,3,4,4,5,5,6,6,12,12,13,13,14,14],"right_children":[2,4,6,8,10,12,14,-1,-1,-1,-1,-1,16,18,20,-1,-1,-1,-1,-1,-1],"split_conditions":[3.6674167E-4,2.3044238E-3,2E0,1.5255598E-21,1.9980703E4,-1.1381511E-4,2.9328628E-3,5.5102073E-3,-4.968415E-2,2.9548723E-2,-1.1936116E-2,6.1069753E-2,2.4474845E-3,1.2785264E-3,1.343724E-3,1.3775761E-3,-3.64127E-2,-2.2570318E-2,2.9241396E-2,3.419501E-2,-2.9826162E-2],"split_indices":[12,14,17,8,0,14,13,0,0,0,0,0,12,3,3,0,0,0,0,0,0],"split_type":[0,0,0,0,0,0,0,0,0,0,0,0,0,0,0,0,0,0,0,0,0],"sum_hessian":[6.656307E1,8.1092415E0,5.845383E1,5.137019E0,2.9722223E0,2.3888248E1,3.4565582E1,1.1944468E0,3.9425724E0,1.1802137E0,1.7920086E0,2.32554E0,2.1562708E1,2.7725468E1,6.840115E0,1.240365E1,9.159058E0,3.523243E0,2.4202225E1,1.0288221E0,5.8112926E0],"tree_param":{"num_deleted":"0","num_feature":"18","num_nodes":"21","size_leaf_vector":"1"}},{"base_weights":[1.220676E-2,6.5272886E-1,-5.476461E-2,1.0505111E0,-3.468053E-2,-3.8149363E-1,1.1332686E-1,3.983998E-3,6.5360285E-2,4.129957E-2,-4.9647346E-1,-4.0478683E-1,2.784912E-1,-4.1642126E-2,-2.842422E-3,-3.4416396E-2,4.067333E-2,2.0236336E-2,-3.023372E-2],"categories":[],"categories_nodes":[],"categories_segments":[],"categories_sizes":[],"default_left":[0,0,0,0,0,0,0,0,0,0,0,0,0,0,0,0,0,0,0],"id":36,"left_children":[1,3,5,7,-1,9,11,-1,-1,-1,13,15,17,-1,-1,-1,-1,-1,-1],"loss_changes":[2.897762E0,4.1524267E0,3.4112713E0,1.2247744E0,0E0,3.3341913E0,3.6438782E0,0E0,0E0,0E0,2.888731E0,4.14618E0,3.7991722E0,0E0,0E0,0E0,0E0,0E0,0E0],"parents":[2147483647,0,0,1,1,2,2,3,3,5,5,6,6,10,10,11,11,12,12],"right_children":[2,4,6,8,-1,10,12,-1,-1,-1,14,16,18,-1,-1,-1,-1,-1,-1],"split_conditions":[-3.673265E-5,1.3E1,3.6375204E-12,2E0,-3.468053E-2,-8.6681696E-4,8.6639967E-4,3.983998E-3,6.5360285E-2,4.129957E-2,1.982847E-3,2.1442906E-3,7.345375E0,-4.1642126E-2,-2.842422E-3,-3.4416396E-2,4.067333E-2,2.0236336E-2,-3.023372E-2],"split_indices":[13,16,9,17,0,14,14,0,0,0,12,3,9,0,0,0,0,0,0],"split_type":[0,0,0,0,0,0,0,0,0,0,0,0,0,0,0,0,0,0,0],"sum_hessian":[6.571887E1,5.3930182E0,6.032585E1,4.332646E0,1.0603726E0,2.0061537E1,4.0264317E1,1.1800492E0,3.1525965E0,1.2065809E0,1.8854956E1,9.382135E0,3.0882181E1,1.0175197E1,8.679759E0,7.9636354E0,1.4185E0,2.7494043E1,3.3881364E0],"tree_param":{"num_deleted":"0","num_feature":"18","num_nodes":"19","size_leaf_vector":"1"}},{"base_weights":[4.43671E-2,-4.5502803E-1,1.5867078E-1,3.8695212E-2,-6.35984E-1,7.4044544E-1,5.031252E-2,-7.8509605E-1,1.0501452E-2,1.1309559E0,-5.72933E-2,-6.801332E-2,8.0462515E-1,-2.6512982E-3,-4.9802784E-2,6.67347E-2,9.08745E-3,-3.294034E-2,2.1239972E-2,-4.5578193E-2,6.3903135E-4,5.7097565E-2,-6.13069E-3],"categories":[],"categories_nodes":[],"categories_segments":[],"categories_sizes":[],"default_left":[0,0,0,0,0,0,0,0,0,0,0,0,0,0,0,0,0,0,0,0,0,0,0],"id":37,"left_children":[1,3,5,-1,7,9,11,13,-1,15,17,19,21,-1,-1,-1,-1,-1,-1,-1,-1,-1,-1],"loss_changes":[3.750212E0,3.218478E0,3.3148155E0,0E0,1.582181E0,2.6429553E0,4.151307E0,1.4548736E0,0E0,8.4123564E-1,1.3445742E0,2.7784362E0,2.111002E0,0E0,0E0,0E0,0E0,0E0,0E0,0E0,0E0,0E0,0E0],"parents":[2147483647,0,0,1,1,2,2,4,4,5,5,6,6,7,7,9,9,10,10,11,11,12,12],"right_children":[2,4,6,-1,8,10,12,14,-1,16,18,20,22,-1,-1,-1,-1,-1,-1,-1,-1,-1,-1],"split_conditions":[5.6294363E-4,-9.201141E-4,2.2824039E-4,3.8695212E-2,2.1737088E4,3E0,2.882523E-3,1.1E1,1.0501452E-2,1.8109856E-3,2.017354E-3,5.3733634E-4,2.6294845E-3,-2.6512982E-3,-4.9802784E-2,6.67347E-2,9.08745E-3,-3.294034E-2,2.1239972E-2,-4.5578193E-2,6.3903135E-4,5.7097565E-2,-6.13069E-3],"split_indices":[12,12,14,0,0,17,10,16,0,3,10,14,11,0,0,0,0,0,0,0,0,0,0],"split_type":[0,0,0,0,0,0,0,0,0,0,0,0,0,0,0,0,0,0,0,0,0,0,0],"sum_hessian":[6.343304E1,1.1259441E1,5.21736E1,1.0245601E0,1.0234881E1,7.2759223E0,4.4897675E1,8.762477E0,1.4724047E0,4.60431E0,2.6716123E0,3.959622E1,5.301458E0,2.2401352E0,6.5223413E0,3.456328E0,1.1479821E0,1.0255115E0,1.6461005E0,2.56221E0,3.7034008E1,3.717488E0,1.5839697E0],"tree_param":{"num_deleted":"0","num_feature":"18","num_nodes":"23","size_leaf_vector":"1"}},{"base_weights":[5.857889E-3,-4.9639747E-1,1.06255546E-1,3.1348933E-2,-6.9159627E-1,4.0955245E-1,-9.674598E-2,-8.8383883E-1,4.5399764E-3,-3.5253268E-2,4.9990028E-1,-2.2576351E-1,5.252628E-1,-1.6158395E-2,-5.2011408E-2,4.280714E-2,3.3612223E-4,-2.771766E-2,6.5783807E-3,5.179252E-2,-2.7377015E-2],"categories":[],"categories_nodes":[],"categories_segments":[],"categories_sizes":[],"default_left":[0,0,0,0,0,0,0,0,0,0,0,0,0,0,0,0,0,0,0,0,0],"id":38,"left_children":[1,3,5,-1,7,9,11,13,-1,-1,15,17,19,-1,-1,-1,-1,-1,-1,-1,-1],"loss_changes":[3.3806674E0,2.883203E0,3.4768252E0,0E0,1.5832567E0,2.6258113E0,2.8672655E0,3.753686E-1,0E0,0E0,3.7658372E0,3.485828E0,3.9548492E0,0E0,0E0,0E0,0E0,0E0,0E0,0E0,0E0],"parents":[2147483647,0,0,1,1,2,2,4,4,5,5,6,6,7,7,10,10,11,11,12,12],"right_children":[2,4,6,-1,8,10,12,14,-1,-1,16,18,20,-1,-1,-1,-1,-1,-1,-1,-1],"split_conditions":[5.3733634E-4,-9.201141E-4,3.1309757E0,3.1348933E-2,2.4320292E0,7.363557E-4,1.3606749E1,3.678311E-1,4.5399764E-3,-3.5253268E-2,2.1574756E-3,1.882756E-3,3.4318205E-3,-1.6158395E-2,-5.2011408E-2,4.280714E-2,3.3612223E-4,-2.771766E-2,6.5783807E-3,5.179252E-2,-2.7377015E-2],"split_indices":[12,12,2,0,6,10,2,6,0,0,10,14,11,0,0,0,0,0,0,0,0],"split_type":[0,0,0,0,0,0,0,0,0,0,0,0,0,0,0,0,0,0,0,0,0],"sum_hessian":[6.499713E1,1.017096E1,5.482617E1,1.1782265E0,8.992734E0,2.1574717E1,3.3251453E1,7.1148796E0,1.8778542E0,1.1075102E0,2.0467207E1,2.8066847E1,5.184606E0,2.2205229E0,4.8943567E0,1.1456058E1,9.011149E0,1.4334215E1,1.3732633E1,3.5360913E0,1.6485147E0],"tree_param":{"num_deleted":"0","num_feature":"18","num_nodes":"21","size_leaf_vector":"1"}},{"base_weights":[-7.937539E-2,-1.568234E-1,8.10927E-1,6.244728E-1,-2.3227759E-1,1.1840715E0,-1.3704932E-2,6.752792E-2,-1.7719997E-1,-2.9411966E-1,4.8846453E-1,1.9626522E-2,7.131576E-2,-3.575031E-2,2.3762051E-2,4.697294E-3,-2.1186162E-2,-2.0507522E-2,4.9934942E-2],"categories":[],"categories_nodes":[],"categories_segments":[],"categories_sizes":[],"default_left":[0,0,0,0,0,0,0,0,0,0,0,0,0,0,0,0,0,0,0],"id":39,"left_children":[1,3,5,7,9,11,-1,-1,13,15,17,-1,-1,-1,-1,-1,-1,-1,-1],"loss_changes":[4.3943744E0,3.5508103E0,2.395369E0,3.358747E0,2.5243828E0,2.05935E-1,0E0,0E0,1.5436857E0,2.5452838E0,2.5171993E0,0E0,0E0,0E0,0E0,0E0,0E0,0E0,0E0],"parents":[2147483647,0,0,1,1,2,2,3,3,4,4,5,5,8,8,9,9,10,10],"right_children":[2,4,6,8,10,12,-1,-1,14,16,18,-1,-1,-1,-1,-1,-1,-1,-1],"split_conditions":[5.586178E-3,1.2120822E-3,2.0733464E-3,9.762324E-4,5.0107995E-3,8.119524E-10,-1.3704932E-2,6.752792E-2,2.3759622E-3,4.7027943E-1,9.951182E-1,1.9626522E-2,7.131576E-2,-3.575031E-2,2.3762051E-2,4.697294E-3,-2.1186162E-2,-2.0507522E-2,4.9934942E-2],"split_indices":[12,3,13,14,11,9,0,0,10,5,5,0,0,0,0,0,0,0,0],"split_type":[0,0,0,0,0,0,0,0,0,0,0,0,0,0,0,0,0,0,0],"sum_hessian":[6.088643E1,5.6771675E1,4.114753E0,4.359078E0,5.2412598E1,2.9938662E0,1.1208867E0,1.9280984E0,2.4309793E0,4.881595E1,3.5966487E0,1.315573E0,1.6782931E0,1.2799907E0,1.1509887E0,1.2290437E1,3.6525513E1,1.3736155E0,2.2230332E0],"tree_param":{"num_deleted":"0","num_feature":"18","num_nodes":"19","size_leaf_vector":"1"}},{"base_weights":[5.5075932E-2,-7.683752E-2,4.6308637E-1,-8.238707E-3,-4.5180082E-2,6.327185E-1,-3.685805E-2,-5.8590674E-1,7.806865E-2,-1.9445606E-2,9.185813E-1,8.369384E-3,-3.9216615E-2,1.6778246E-2,-8.276452E-3,3.7514076E-2,-4.7435906E-2,5.732606E-2,9.010929E-3],"categories":[],"categories_nodes":[],"categories_segments":[],"categories_sizes":[],"default_left":[0,0,0,0,0,0,0,0,0,0,0,0,0,0,0,0,0,0,0],"id":40,"left_children":[1,3,5,7,-1,9,-1,11,13,15,17,-1,-1,-1,-1,-1,-1,-1,-1],"loss_changes":[3.4805915E0,2.7844596E0,3.6793342E0,2.362323E0,0E0,2.6958327E0,0E0,1.0516374E0,2.6465616E0,4.5434837E0,1.4776917E0,0E0,0E0,0E0,0E0,0E0,0E0,0E0,0E0],"parents":[2147483647,0,0,1,1,2,2,3,3,5,5,7,7,8,8,9,9,10,10],"right_children":[2,4,6,8,-1,10,-1,12,14,16,18,-1,-1,-1,-1,-1,-1,-1,-1],"split_conditions":[2.6239266E0,7.345375E0,2.2083716E-3,2.2578124E-4,-4.5180082E-2,9.720148E-4,-3.685805E-2,1.3493804E-3,6.347504E-1,-1.1381511E-4,1.4E1,8.369384E-3,-3.9216615E-2,1.6778246E-2,-8.276452E-3,3.7514076E-2,-4.7435906E-2,5.732606E-2,9.010929E-3],"split_indices":[6,9,3,11,0,11,0,10,6,11,16,0,0,0,0,0,0,0,0],"split_type":[0,0,0,0,0,0,0,0,0,0,0,0,0,0,0,0,0,0,0],"sum_hessian":[6.3007378E1,4.822687E1,1.4780504E1,4.5464523E1,2.7623472E0,1.3364527E1,1.4159782E0,5.157305E0,4.030722E1,4.3568454E0,9.007681E0,1.1078665E0,4.049438E0,1.9411087E1,2.0896132E1,2.4883394E0,1.868506E0,6.4604783E0,2.5472026E0],"tree_param":{"num_deleted":"0","num_feature":"18","num_nodes":"19","size_leaf_vector":"1"}},{"base_weights":[-3.5894644E-2,-1.727973E-1,4.4237196E-1,2.0084344E-1,-3.7562624E-1,9.5757806E-1,2.2405529E-1,6.5606385E-1,-1.7213987E-1,-7.751157E-1,-1.952335E-1,6.1475415E-2,8.81838E-3,-3.4039956E-1,5.198546E-1,4.546013E-2,8.317593E-3,-3.671009E-2,5.231469E-3,-4.9673207E-2,1.1381954E-2,-4.56618E-2,-3.5339785E-3,-4.7110453E-2,3.1063361E-2,6.2613743E-3,5.0030023E-2],"categories":[],"categories_nodes":[],"categories_segments":[],"categories_sizes":[],"default_left":[0,0,0,0,0,0,0,0,0,0,0,0,0,0,0,0,0,0,0,0,0,0,0,0,0,0,0],"id":41,"left_children":[1,3,5,7,9,11,13,15,17,19,21,-1,-1,23,25,-1,-1,-1,-1,-1,-1,-1,-1,-1,-1,-1,-1],"loss_changes":[4.383319E0,4.005551E0,1.4635589E0,3.3215947E0,2.2960496E0,6.615696E-1,2.1445537E0,9.2954755E-1,1.8158903E0,2.4655685E0,2.1472998E0,0E0,0E0,3.2802095E0,1.4167137E0,0E0,0E0,0E0,0E0,0E0,0E0,0E0,0E0,0E0,0E0,0E0,0E0],"parents":[2147483647,0,0,1,1,2,2,3,3,4,4,5,5,6,6,7,7,8,8,9,9,10,10,13,13,14,14],"right_children":[2,4,6,8,10,12,14,16,18,20,22,-1,-1,24,26,-1,-1,-1,-1,-1,-1,-1,-1,-1,-1,-1,-1],"split_conditions":[2.6239266E0,4.6471924E-1,3.3263288E0,1.2879651E-3,1.0791199E-3,2.7105063E-3,4.2926174E-16,2.1315268E-3,9.99911E-21,3.3241229E-3,2.23685E-1,6.1475415E-2,8.81838E-3,1.4182828E1,1.9556822E-3,4.546013E-2,8.317593E-3,-3.671009E-2,5.231469E-3,-4.9673207E-2,1.1381954E-2,-4.56618E-2,-3.5339785E-3,-4.7110453E-2,3.1063361E-2,6.2613743E-3,5.0030023E-2],"split_indices":[6,6,6,13,12,14,8,12,8,11,5,0,0,6,14,0,0,0,0,0,0,0,0,0,0,0,0],"split_type":[0,0,0,0,0,0,0,0,0,0,0,0,0,0,0,0,0,0,0,0,0,0,0,0,0,0,0],"sum_hessian":[6.4778E1,5.0858562E1,1.391944E1,1.7897858E1,3.2960705E1,3.134987E0,1.0784452E1,7.7185383E0,1.017932E1,9.227991E0,2.3732712E1,1.8998287E0,1.2351584E0,3.6564002E0,7.1280527E0,4.5236135E0,3.1949246E0,2.8133078E0,7.3660126E0,7.5855207E0,1.6424708E0,2.5723147E0,2.1160397E1,2.2614326E0,1.3949676E0,4.6068993E0,2.5211535E0],"tree_param":{"num_deleted":"0","num_feature":"18","num_nodes":"27","size_leaf_vector":"1"}},{"base_weights":[3.439833E-2,-4.3538117E-1,1.08025916E-1,-6.4552283E-1,3.1525508E-2,6.224392E-1,1.47590395E-2,-8.868544E-1,3.2127254E-2,1.0600085E0,-1.8207495E-1,-3.5676584E-1,1.6173987E-1,-7.4414574E-3,-5.04317E-2,-3.254219E-2,3.69963E-2,6.0643416E-2,1.0313009E-2,1.4898889E-2,-3.5593484E-2,-2.6204756E-2,2.1511264E-2,1.3190553E-2,-2.3448672E-2],"categories":[],"categories_nodes":[],"categories_segments":[],"categories_sizes":[],"default_left":[0,0,0,0,0,0,0,0,0,0,0,0,0,0,0,0,0,0,0,0,0,0,0,0,0],"id":42,"left_children":[1,3,5,7,-1,9,11,13,15,17,19,21,23,-1,-1,-1,-1,-1,-1,-1,-1,-1,-1,-1,-1],"loss_changes":[2.3724725E0,2.4919152E0,2.8178067E0,1.3808463E0,0E0,3.3680477E0,2.8374093E0,4.0107107E-1,1.997843E0,5.313511E-1,1.2372636E0,2.1667566E0,2.5161335E0,0E0,0E0,0E0,0E0,0E0,0E0,0E0,0E0,0E0,0E0,0E0,0E0],"parents":[2147483647,0,0,1,1,2,2,3,3,5,5,6,6,7,7,8,8,9,9,10,10,11,11,12,12],"right_children":[2,4,6,8,-1,10,12,14,16,18,20,22,24,-1,-1,-1,-1,-1,-1,-1,-1,-1,-1,-1,-1],"split_conditions":[3.6674167E-4,2.1737088E4,2.2824039E-4,1.8704687E-3,3.1525508E-2,3E0,9.574057E-15,1.2120822E-3,5.3677917E0,1.8109856E-3,1.4891773E-3,3.6220942E-3,5.49109E0,-7.4414574E-3,-5.04317E-2,-3.254219E-2,3.69963E-2,6.0643416E-2,1.0313009E-2,1.4898889E-2,-3.5593484E-2,-2.6204756E-2,2.1511264E-2,1.3190553E-2,-2.3448672E-2],"split_indices":[12,0,14,3,0,17,8,3,2,3,13,14,9,0,0,0,0,0,0,0,0,0,0,0,0],"split_type":[0,0,0,0,0,0,0,0,0,0,0,0,0,0,0,0,0,0,0,0,0,0,0,0,0],"sum_hessian":[6.6231155E1,8.308111E0,5.7923042E1,7.2693353E0,1.0387754E0,8.019233E0,4.990381E1,5.1327043E0,2.136631E0,4.9884667E0,3.0307658E0,1.374164E1,3.616217E1,1.0417101E0,4.0909944E0,1.1283389E0,1.008292E0,3.874174E0,1.1142927E0,1.8195825E0,1.2111834E0,1.1607678E1,2.1339617E0,3.1625757E1,4.5364127E0],"tree_param":{"num_deleted":"0","num_feature":"18","num_nodes":"25","size_leaf_vector":"1"}},{"base_weights":[-3.450255E-2,4.9609866E-2,-6.441702E-1,3.317415E-1,-1.6043742E-1,6.865531E-3,-9.047113E-1,3.6802776E-2,8.5878265E-1,1.2195404E-2,-6.8164754E-1,-1.0494068E-2,-5.0774675E-2,-2.0064168E-2,2.5778359E-2,6.318281E-3,6.797249E-2,-7.0205913E-3,6.1734524E-2,2.4472515E-3,-4.2351622E-2],"categories":[],"categories_nodes":[],"categories_segments":[],"categories_sizes":[],"default_left":[0,0,0,0,0,0,0,0,0,0,0,0,0,0,0,0,0,0,0,0,0],"id":43,"left_children":[1,3,5,7,9,-1,11,13,15,17,19,-1,-1,-1,-1,-1,-1,-1,-1,-1,-1],"loss_changes":[3.2441196E0,3.370251E0,1.6850264E0,3.732284E0,2.9559498E0,0E0,2.3953962E-1,3.6823256E0,2.9977417E0,4.9476933E0,1.028434E0,0E0,0E0,0E0,0E0,0E0,0E0,0E0,0E0,0E0,0E0],"parents":[2147483647,0,0,1,1,2,2,3,3,4,4,6,6,7,7,8,8,9,9,10,10],"right_children":[2,4,6,8,10,-1,12,14,16,18,20,-1,-1,-1,-1,-1,-1,-1,-1,-1,-1],"split_conditions":[3.5415078E-3,1.1848405E-3,1E0,8.699823E-4,1.9841215E-3,6.865531E-3,4.0558632E-4,1.882756E-3,1.1137444E0,1.9067116E-3,2.5771998E-10,-1.0494068E-2,-5.0774675E-2,-2.0064168E-2,2.5778359E-2,6.318281E-3,6.797249E-2,-7.0205913E-3,6.1734524E-2,2.4472515E-3,-4.2351622E-2],"split_indices":[13,11,17,11,3,0,11,14,5,3,8,0,0,0,0,0,0,0,0,0,0],"split_type":[0,0,0,0,0,0,0,0,0,0,0,0,0,0,0,0,0,0,0,0,0],"sum_hessian":[6.1638916E1,5.4973198E1,6.665715E0,2.3213665E1,3.1759535E1,1.7849175E0,4.880798E0,1.557021E1,7.643454E0,2.4591164E1,7.1683707E0,1.0692104E0,3.8115873E0,8.215018E0,7.3551927E0,3.6119664E0,4.0314875E0,2.2648977E1,1.9421874E0,1.4531395E0,5.715231E0],"tree_param":{"num_deleted":"0","num_feature":"18","num_nodes":"21","size_leaf_vector":"1"}},{"base_weights":[1.3195916E-2,-4.426262E-2,7.696242E-1,-1.3914031E-1,4.5090201E-1,5.28236E-2,1.0541179E-2,-2.5568755E-2,-6.658662E-1,1.2296568E0,-1.8254991E-1,-5.791726E-3,2.8838953E-2,1.1040419E-2,-4.0496048E-2,8.072054E-2,1.4689015E-2,2.728344E-2,-3.2441165E-2],"categories":[],"categories_nodes":[],"categories_segments":[],"categories_sizes":[],"default_left":[0,0,0,0,0,0,0,0,0,0,0,0,0,0,0,0,0,0,0],"id":44,"left_children":[1,3,5,7,9,-1,-1,11,13,15,17,-1,-1,-1,-1,-1,-1,-1,-1],"loss_changes":[2.7046938E0,2.7900891E0,4.8131633E-1,2.943081E0,4.9457273E0,0E0,0E0,2.3365827E0,1.2948062E0,1.1180863E0,2.4417398E0,0E0,0E0,0E0,0E0,0E0,0E0,0E0,0E0],"parents":[2147483647,0,0,1,1,2,2,3,3,4,4,7,7,8,8,9,9,10,10],"right_children":[2,4,6,8,10,-1,-1,12,14,16,18,-1,-1,-1,-1,-1,-1,-1,-1],"split_conditions":[5.5866125E-3,2.1781188E4,2.0576045E4,9.622654E0,1.2E1,5.28236E-2,1.0541179E-2,1.5E1,1.518316E-23,3.312099E0,2.221336E4,-5.791726E-3,2.8838953E-2,1.1040419E-2,-4.0496048E-2,8.072054E-2,1.4689015E-2,2.728344E-2,-3.2441165E-2],"split_indices":[14,0,0,2,16,0,0,16,8,2,0,0,0,0,0,0,0,0,0],"split_type":[0,0,0,0,0,0,0,0,0,0,0,0,0,0,0,0,0,0,0],"sum_hessian":[6.0445652E1,5.7053345E1,3.3923059E0,4.8482662E1,8.570682E0,1.6531116E0,1.7391944E0,4.07457E1,7.7369614E0,3.4222395E0,5.1484423E0,3.6137897E1,4.6078053E0,1.0068523E0,6.7301087E0,1.9114053E0,1.5108342E0,1.943241E0,3.2052011E0],"tree_param":{"num_deleted":"0","num_feature":"18","num_nodes":"19","size_leaf_vector":"1"}},{"base_weights":[4.3106016E-2,-3.0562798E-2,5.8598363E-1,3.3165875E-1,-2.255211E-1,8.6365646E-1,-1.222838E-2,6.695823E-2,1.4754757E-1,-7.627559E-1,-8.844202E-2,-4.252828E-3,6.0926873E-2,2.8004853E-2,-3.3802576E-2,-4.4266405E-3,3.09915E-2,-4.7210183E-2,9.853547E-3,-1.7057559E-2,1.07361665E-2],"categories":[],"categories_nodes":[],"categories_segments":[],"categories_sizes":[],"default_left":[0,0,0,0,0,0,0,0,0,0,0,0,0,0,0,0,0,0,0,0,0],"id":45,"left_children":[1,3,5,7,9,11,13,-1,15,17,19,-1,-1,-1,-1,-1,-1,-1,-1,-1,-1],"loss_changes":[2.5176952E0,4.0285087E0,1.259371E0,3.5113063E0,2.6567993E0,1.8371022E0,1.6587758E0,0E0,2.065083E0,1.4729166E0,2.417871E0,0E0,0E0,0E0,0E0,0E0,0E0,0E0,0E0,0E0,0E0],"parents":[2147483647,0,0,1,1,2,2,3,3,4,4,5,5,6,6,8,8,9,9,10,10],"right_children":[2,4,6,8,10,12,14,-1,16,18,20,-1,-1,-1,-1,-1,-1,-1,-1,-1,-1],"split_conditions":[9.063185E0,5.651123E-1,2.1079445E4,-1.1381511E-4,4.2394698E-1,9.896724E-4,1.6758803E-3,6.695823E-2,3.56339E-1,2.1470924E4,1.9468981E-3,-4.252828E-3,6.0926873E-2,2.8004853E-2,-3.3802576E-2,-4.4266405E-3,3.09915E-2,-4.7210183E-2,9.853547E-3,-1.7057559E-2,1.07361665E-2],"split_indices":[6,6,0,13,5,14,13,0,6,0,13,0,0,0,0,0,0,0,0,0,0],"split_type":[0,0,0,0,0,0,0,0,0,0,0,0,0,0,0,0,0,0,0,0,0],"sum_hessian":[6.1505344E1,5.4987244E1,6.5180993E0,1.8994799E1,3.5992447E1,4.1486745E0,2.3694248E0,1.9654818E0,1.7029318E1,6.3889155E0,2.960353E1,1.33639E0,2.8122842E0,1.3563136E0,1.0131112E0,1.1895595E1,5.1337223E0,5.386851E0,1.0020648E0,1.6076971E1,1.3526558E1],"tree_param":{"num_deleted":"0","num_feature":"18","num_nodes":"21","size_leaf_vector":"1"}},{"base_weights":[-1.3414705E-2,4.3871954E-2,-5.36409E-2,2.0876826E-1,-1.59748E-1,-1.07466005E-1,9.0012574E-1,1.11336924E-1,-4.6896815E-1,-3.212039E-2,9.85262E-3,6.2168922E-2,-1.46133695E-2,-1.41120525E-2,2.2848224E-2,-2.9101407E-2,2.493367E-2],"categories":[],"categories_nodes":[],"categories_segments":[],"categories_sizes":[],"default_left":[0,0,0,0,0,0,0,0,0,0,0,0,0,0,0,0,0],"id":46,"left_children":[1,-1,3,5,7,9,11,13,15,-1,-1,-1,-1,-1,-1,-1,-1],"loss_changes":[2.3920445E0,0E0,1.8028667E0,4.1921563E0,3.8930833E0,2.365866E0,2.813325E0,3.5601978E0,2.6529183E0,0E0,0E0,0E0,0E0,0E0,0E0,0E0,0E0],"parents":[2147483647,0,0,2,2,3,3,4,4,5,5,6,6,7,7,8,8],"right_children":[2,-1,4,6,8,10,12,14,16,-1,-1,-1,-1,-1,-1,-1,-1],"split_conditions":[-8.6681696E-4,4.3871954E-2,4.6157414E-1,2.2164658E-2,1.6837314E-3,8.5030176E-4,2.829024E-3,1.5063102E-3,5.842925E-3,-3.212039E-2,9.85262E-3,6.2168922E-2,-1.46133695E-2,-1.41120525E-2,2.2848224E-2,-2.9101407E-2,2.493367E-2],"split_indices":[14,0,6,9,11,11,11,13,14,0,0,0,0,0,0,0,0],"split_type":[0,0,0,0,0,0,0,0,0,0,0,0,0,0,0,0,0],"sum_hessian":[6.443701E1,1.884739E0,6.2552273E1,1.7732134E1,4.482014E1,1.2746367E1,4.985766E0,2.4223764E1,2.0596375E1,4.2213006E0,8.525066E0,3.83813E0,1.147636E0,1.1411964E1,1.28118E1,1.8798458E1,1.7979181E0],"tree_param":{"num_deleted":"0","num_feature":"18","num_nodes":"17","size_leaf_vector":"1"}},{"base_weights":[2.3783572E-2,-2.7452323E-1,1.7789994E-1,-3.7795097E-1,3.579095E-2,6.580559E-1,1.9119402E-3,1.6332214E-1,-5.383106E-1,8.844253E-1,-3.4790423E-2,-3.903665E-1,2.3093037E-1,-1.8379772E-2,3.502738E-2,-5.2602584E-3,-3.798245E-2,5.6339176E-3,6.298961E-2,1.8539034E-2,-4.2737477E-2,-2.1627156E-2,2.1535281E-2],"categories":[],"categories_nodes":[],"categories_segments":[],"categories_sizes":[],"default_left":[0,0,0,0,0,0,0,0,0,0,0,0,0,0,0,0,0,0,0,0,0,0,0],"id":47,"left_children":[1,3,5,7,-1,9,11,13,15,17,-1,19,21,-1,-1,-1,-1,-1,-1,-1,-1,-1,-1],"loss_changes":[3.0300143E0,2.5733914E0,3.6629453E0,1.9116294E0,0E0,4.1789346E0,3.0310192E0,1.8460102E0,1.4962182E0,2.8714552E0,0E0,4.7133865E0,3.009081E0,0E0,0E0,0E0,0E0,0E0,0E0,0E0,0E0,0E0,0E0],"parents":[2147483647,0,0,1,1,2,2,3,3,5,5,6,6,7,7,8,8,9,9,11,11,12,12],"right_children":[2,4,6,8,-1,10,12,14,16,18,-1,20,22,-1,-1,-1,-1,-1,-1,-1,-1,-1,-1],"split_conditions":[1.7967111E-3,5.586178E-3,2.1161567E-3,1.9968346E4,3.579095E-2,2.0580925E-3,1.3365109E-13,1.697253E-3,9.673697E-12,1.3441404E-3,-3.4790423E-2,1.518316E-23,1.9691912E4,-1.8379772E-2,3.502738E-2,-5.2602584E-3,-3.798245E-2,5.6339176E-3,6.298961E-2,1.8539034E-2,-4.2737477E-2,-2.1627156E-2,2.1535281E-2],"split_indices":[10,12,10,0,0,3,8,3,8,12,0,8,0,0,0,0,0,0,0,0,0,0,0],"split_type":[0,0,0,0,0,0,0,0,0,0,0,0,0,0,0,0,0,0,0,0,0,0,0],"sum_hessian":[6.3844894E1,2.1482403E1,4.2362495E1,2.00109E1,1.4715023E0,1.0627581E1,3.1734913E1,4.56931E0,1.5441589E1,9.402243E0,1.2253376E0,1.1438223E1,2.029669E1,2.4569557E0,2.1123548E0,5.721439E0,9.720151E0,3.502125E0,5.900118E0,4.410596E0,7.0276265E0,4.4274707E0,1.586922E1],"tree_param":{"num_deleted":"0","num_feature":"18","num_nodes":"23","size_leaf_vector":"1"}},{"base_weights":[-5.2066468E-2,-1.2801324E-1,5.635937E-1,-1.7211637E-1,4.024441E-2,2.520715E-2,9.599098E-1,-2.3172256E-1,5.681716E-1,3.8081076E-2,-3.8483247E-2,5.9367258E-2,1.01287225E-2,-3.7682205E-3,-4.349882E-2,4.0321894E-2,2.468041E-4],"categories":[],"categories_nodes":[],"categories_segments":[],"categories_sizes":[],"default_left":[0,0,0,0,0,0,0,0,0,0,0,0,0,0,0,0,0],"id":48,"left_children":[1,3,5,7,-1,9,11,13,15,-1,-1,-1,-1,-1,-1,-1,-1],"loss_changes":[2.9850113E0,2.4537537E0,1.4749708E0,2.538937E0,0E0,2.9311562E0,4.5190692E-1,5.043998E0,5.8045983E-1,0E0,0E0,0E0,0E0,0E0,0E0,0E0,0E0],"parents":[2147483647,0,0,1,1,2,2,3,3,5,5,6,6,7,7,8,8],"right_children":[2,4,6,8,-1,10,12,14,16,-1,-1,-1,-1,-1,-1,-1,-1],"split_conditions":[3.799719E-3,1.6609196E1,2.0172321E-3,5.586178E-3,4.024441E-2,7.320256E-4,6.908001E0,3.0730972E-3,8.6639967E-4,3.8081076E-2,-3.8483247E-2,5.9367258E-2,1.01287225E-2,-3.7682205E-3,-4.349882E-2,4.0321894E-2,2.468041E-4],"split_indices":[14,2,12,12,0,12,2,12,13,0,0,0,0,0,0,0,0],"split_type":[0,0,0,0,0,0,0,0,0,0,0,0,0,0,0,0,0],"sum_hessian":[6.129739E1,5.5271294E1,6.026099E0,5.3554974E1,1.7163197E0,3.0060508E0,3.0200486E0,5.0199974E1,3.354997E0,1.5821184E0,1.4239324E0,1.8859006E0,1.1341479E0,4.122005E1,8.979926E0,2.0542078E0,1.300789E0],"tree_param":{"num_deleted":"0","num_feature":"18","num_nodes":"17","size_leaf_vector":"1"}},{"base_weights":[5.1602315E-2,4.8887703E-1,-2.6578916E-2,-2.0881874E-2,6.903352E-1,-5.1292527E-1,8.555957E-2,2.644806E-1,6.1477393E-2,-6.982784E-1,9.239972E-3,-3.8425706E-2,1.3495244E-1,3.0665958E-2,-3.3415344E-2,-4.5689665E-2,-6.08378E-3,9.099864E-3,-3.0150458E-2],"categories":[],"categories_nodes":[],"categories_segments":[],"categories_sizes":[],"default_left":[0,0,0,0,0,0,0,0,0,0,0,0,0,0,0,0,0,0,0],"id":49,"left_children":[1,3,5,-1,7,9,11,13,-1,15,-1,-1,17,-1,-1,-1,-1,-1,-1],"loss_changes":[2.247871E0,2.108514E0,3.1201553E0,0E0,1.6338873E0,1.5143447E0,2.0735102E0,2.3755543E0,0E0,9.665375E-1,0E0,0E0,1.6717434E0,0E0,0E0,0E0,0E0,0E0,0E0],"parents":[2147483647,0,0,1,1,2,2,4,4,5,5,6,6,7,7,9,9,12,12],"right_children":[2,4,6,-1,8,10,12,14,-1,16,-1,-1,18,-1,-1,-1,-1,-1,-1],"split_conditions":[1.8057306E-4,1.909667E4,1E0,-2.0881874E-2,1.982847E-3,2.684649E0,4.0558632E-4,1.8109856E-3,6.1477393E-2,2.5127959E-3,9.239972E-3,-3.8425706E-2,5.586178E-3,3.0665958E-2,-3.3415344E-2,-4.5689665E-2,-6.08378E-3,9.099864E-3,-3.0150458E-2],"split_indices":[14,0,17,0,12,6,14,3,0,14,0,0,13,0,0,0,0,0,0],"split_type":[0,0,0,0,0,0,0,0,0,0,0,0,0,0,0,0,0,0,0],"sum_hessian":[6.437275E1,8.966906E0,5.540584E1,1.4353037E0,7.531602E0,9.711759E0,4.569408E1,5.040921E0,2.4906807E0,7.672687E0,2.0390716E0,1.7021561E0,4.3991924E1,3.9181292E0,1.122792E0,5.1594644E0,2.513223E0,4.206375E1,1.9281735E0],"tree_param":{"num_deleted":"0","num_feature":"18","num_nodes":"19","size_leaf_vector":"1"}},{"base_weights":[-4.7940735E-2,-1.0259318E-1,8.2851464E-1,3.997561E-2,-6.148568E-1,1.9912298E-3,5.8254927E-2,-5.0186306E-2,7.803689E-1,-7.793373E-1,2.7800424E-2,-1.03473775E-2,1.5891073E-2,5.8101516E-2,8.703288E-3,7.232543E-3,-5.4650158E-2],"categories":[],"categories_nodes":[],"categories_segments":[],"categories_sizes":[],"default_left":[0,0,0,0,0,0,0,0,0,0,0,0,0,0,0,0,0],"id":50,"left_children":[1,3,5,7,9,-1,-1,11,13,15,-1,-1,-1,-1,-1,-1,-1],"loss_changes":[3.0527558E0,4.3488493E0,9.4822955E-1,3.193874E0,2.9276953E0,0E0,0E0,2.5502965E0,9.988384E-1,3.5702338E0,0E0,0E0,0E0,0E0,0E0,0E0,0E0],"parents":[2147483647,0,0,1,1,2,2,3,3,4,4,7,7,8,8,9,9],"right_children":[2,4,6,8,10,-1,-1,12,14,16,-1,-1,-1,-1,-1,-1,-1],"split_conditions":[5.586178E-3,2.9178897E-3,2.0184791E4,2.6280074E-3,4.9789106E-3,1.9912298E-3,5.8254927E-2,1.5706795E0,2.1833703E-3,8.8407926E-4,2.7800424E-2,-1.03473775E-2,1.5891073E-2,5.8101516E-2,8.703288E-3,7.232543E-3,-5.4650158E-2],"split_indices":[12,12,0,12,14,0,0,6,10,14,0,0,0,0,0,0,0],"split_type":[0,0,0,0,0,0,0,0,0,0,0,0,0,0,0,0,0],"sum_hessian":[6.0956768E1,5.820996E1,2.746808E0,4.625784E1,1.195212E1,1.1561095E0,1.5906986E0,4.2067284E1,4.1905565E0,1.0773128E1,1.1789924E0,2.980768E1,1.2259603E1,2.0092018E0,2.1813545E0,2.8668575E0,7.90627E0],"tree_param":{"num_deleted":"0","num_feature":"18","num_nodes":"17","size_leaf_vector":"1"}},{"base_weights":[7.245337E-2,1.6058104E-2,6.8130404E-1,9.939424E-2,-5.8454436E-1,9.7267765E-1,-1.3447823E-2,-1.671973E-1,2.6173696E-1,-8.718955E-1,1.0213799E-1,8.52723E-3,5.9722032E-2,3.982175E-3,-2.287565E-2,-8.407005E-3,2.0522151E-2,-1.0688682E-2,-4.8833165E-2,-1.2490205E-2,1.9977612E-2],"categories":[],"categories_nodes":[],"categories_segments":[],"categories_sizes":[],"default_left":[0,0,0,0,0,0,0,0,0,0,0,0,0,0,0,0,0,0,0,0,0],"id":51,"left_children":[1,3,5,7,9,11,-1,13,15,17,19,-1,-1,-1,-1,-1,-1,-1,-1,-1,-1],"loss_changes":[2.2185256E0,3.0837402E0,1.7789793E0,2.3782008E0,1.5711179E0,5.80904E-1,0E0,1.5431278E0,2.2369776E0,1.6354752E-1,4.2544347E-1,0E0,0E0,0E0,0E0,0E0,0E0,0E0,0E0,0E0,0E0],"parents":[2147483647,0,0,1,1,2,2,3,3,4,4,5,5,7,7,8,8,9,9,10,10],"right_children":[2,4,6,8,10,12,-1,14,16,18,20,-1,-1,-1,-1,-1,-1,-1,-1,-1,-1],"split_conditions":[1.551737E1,9.622654E0,1.7151017E-3,1.3835357E-3,1.3606749E1,9.9994326E-1,-1.3447823E-2,2.086054E4,1.1812529E-14,1.1103441E-3,2.2125372E-3,8.52723E-3,5.9722032E-2,3.982175E-3,-2.287565E-2,-8.407005E-3,2.0522151E-2,-1.0688682E-2,-4.8833165E-2,-1.2490205E-2,1.9977612E-2],"split_indices":[2,2,3,12,2,7,0,0,8,12,10,0,0,0,0,0,0,0,0,0,0],"split_type":[0,0,0,0,0,0,0,0,0,0,0,0,0,0,0,0,0,0,0,0,0],"sum_hessian":[6.3930298E1,5.945006E1,4.480234E0,5.2939053E1,6.511009E0,3.4108055E0,1.0694288E0,2.0025017E1,3.291404E1,4.4000354E0,2.1109736E0,1.1218892E0,2.2889163E0,1.1215072E1,8.809944E0,8.425898E0,2.448814E1,1.0218039E0,3.3782318E0,1.0401744E0,1.0707991E0],"tree_param":{"num_deleted":"0","num_feature":"18","num_nodes":"21","size_leaf_vector":"1"}},{"base_weights":[1.5877938E-2,-1.056901E-1,3.7138426E-1,-8.078725E-1,-3.1743754E-2,9.130249E-1,2.5184367E-2,-1.1416825E-2,-4.585004E-2,-6.8912286E-1,6.490588E-2,7.079944E-2,8.010157E-2,-2.7797833E-1,6.311672E-1,-4.6659555E-2,1.528791E-3,5.6379855E-2,-1.658385E-3,2.759753E-2,-2.0312428E-2,2.5404928E-2,-3.9070345E-2,-1.2862228E-3,4.747044E-2],"categories":[],"categories_nodes":[],"categories_segments":[],"categories_sizes":[],"default_left":[0,0,0,0,0,0,0,0,0,0,0,0,0,0,0,0,0,0,0,0,0,0,0,0,0],"id":52,"left_children":[1,3,5,7,9,11,13,-1,-1,15,17,-1,19,21,23,-1,-1,-1,-1,-1,-1,-1,-1,-1,-1],"loss_changes":[2.755308E0,2.4464197E0,3.0214674E0,7.49042E-2,2.8475513E0,2.5268912E0,2.1840096E0,0E0,0E0,1.0368924E0,4.1410103E0,0E0,1.0120171E0,3.5556536E0,8.5049367E-1,0E0,0E0,0E0,0E0,0E0,0E0,0E0,0E0,0E0,0E0],"parents":[2147483647,0,0,1,1,2,2,3,3,4,4,5,5,6,6,9,9,10,10,12,12,13,13,14,14],"right_children":[2,4,6,8,10,12,14,-1,-1,16,18,-1,20,22,24,-1,-1,-1,-1,-1,-1,-1,-1,-1,-1],"split_conditions":[2.4801106E0,6.6862864E-27,3.5941195E0,6.756807E-4,9.154149E-1,3.53547E-9,2.9328628E-3,-1.1416825E-2,-4.585004E-2,1.4E1,9.6778226E-1,7.079944E-2,9.5589226E-1,9.9955124E-1,5.200079E0,-4.6659555E-2,1.528791E-3,5.6379855E-2,-1.658385E-3,2.759753E-2,-2.0312428E-2,2.5404928E-2,-3.9070345E-2,-1.2862228E-3,4.747044E-2],"split_indices":[6,8,6,12,7,8,12,0,0,16,7,0,7,7,6,0,0,0,0,0,0,0,0,0,0],"split_type":[0,0,0,0,0,0,0,0,0,0,0,0,0,0,0,0,0,0,0,0,0,0,0,0,0],"sum_hessian":[6.1845192E1,4.660945E1,1.52357435E1,3.495132E0,4.311432E1,5.3025146E0,9.9332285E0,1.0438794E0,2.4512527E0,4.740548E0,3.8373768E1,2.8696456E0,2.4328692E0,6.981688E0,2.951541E0,3.3185139E0,1.4220345E0,2.3552828E0,3.6018486E1,1.1663815E0,1.2664876E0,2.72206E0,4.259628E0,1.2632327E0,1.6883081E0],"tree_param":{"num_deleted":"0","num_feature":"18","num_nodes":"25","size_leaf_vector":"1"}},{"base_weights":[1.0559411E-1,1.5394123E-1,-5.567188E-1,5.2067697E-2,5.121797E-1,1.06457425E-2,-4.2692985E-2,-1.4023094E-1,3.23942E-1,1.7774178E-1,9.933409E-1,2.861528E-2,-2.0819012E-2,2.4062697E-2,-2.2765495E-2,3.0627344E-2,-2.8635284E-2,2.627257E-3,6.277247E-2],"categories":[],"categories_nodes":[],"categories_segments":[],"categories_sizes":[],"default_left":[0,0,0,0,0,0,0,0,0,0,0,0,0,0,0,0,0,0,0],"id":53,"left_children":[1,3,5,7,9,-1,-1,11,13,15,17,-1,-1,-1,-1,-1,-1,-1,-1],"loss_changes":[2.121079E0,2.1638732E0,1.220269E0,2.546891E0,1.943794E0,0E0,0E0,5.889905E0,2.686039E0,3.284692E0,1.2126379E0,0E0,0E0,0E0,0E0,0E0,0E0,0E0,0E0],"parents":[2147483647,0,0,1,1,2,2,3,3,4,4,7,7,8,8,9,9,10,10],"right_children":[2,4,6,8,10,-1,-1,12,14,16,18,-1,-1,-1,-1,-1,-1,-1,-1],"split_conditions":[2.247391E-3,3.0024962E0,5.914225E-1,1.9513752E-3,1.7234329E-3,1.06457425E-2,-4.2692985E-2,3.273976E-1,3.8866329E-3,2.493205E-3,1.815502E-12,2.861528E-2,-2.0819012E-2,2.4062697E-2,-2.2765495E-2,3.0627344E-2,-2.8635284E-2,2.627257E-3,6.277247E-2],"split_indices":[3,6,6,13,3,0,0,6,13,11,8,0,0,0,0,0,0,0,0],"split_type":[0,0,0,0,0,0,0,0,0,0,0,0,0,0,0,0,0,0,0],"sum_hessian":[6.256398E1,5.9023026E1,3.5409563E0,4.6846474E1,1.2176553E1,1.0652568E0,2.4756994E0,2.7722416E1,1.9124056E1,7.991411E0,4.1851416E0,7.443588E0,2.027883E1,1.6230026E1,2.8940296E0,5.1761413E0,2.81527E0,1.1735051E0,3.0116365E0],"tree_param":{"num_deleted":"0","num_feature":"18","num_nodes":"19","size_leaf_vector":"1"}},{"base_weights":[-3.9701037E-2,2.2984098E-1,-2.107266E-1,-4.078013E-2,3.569876E-1,9.045931E-1,-2.99616E-1,8.192075E-2,7.7705944E-1,5.6158807E-2,1.2902896E-2,-3.9213055E-1,4.5423782E-1,-7.4328E-3,4.8834853E-2,4.758395E-2,-1.44316945E-2,-8.8353185E-3,-3.8587864E-2,-2.2133362E-2,5.311341E-2],"categories":[],"categories_nodes":[],"categories_segments":[],"categories_sizes":[],"default_left":[0,0,0,0,0,0,0,0,0,0,0,0,0,0,0,0,0,0,0,0,0],"id":54,"left_children":[1,3,5,-1,7,9,11,13,15,-1,-1,17,19,-1,-1,-1,-1,-1,-1,-1,-1],"loss_changes":[2.9339383E0,3.5846317E0,4.119376E0,0E0,2.5692067E0,1.5024877E-1,2.7378852E0,3.2166727E0,1.9306264E0,0E0,0E0,2.581026E0,2.910783E0,0E0,0E0,0E0,0E0,0E0,0E0,0E0,0E0],"parents":[2147483647,0,0,1,1,2,2,4,4,5,5,6,6,7,7,8,8,11,11,12,12],"right_children":[2,4,6,-1,8,10,12,14,16,-1,-1,18,20,-1,-1,-1,-1,-1,-1,-1,-1],"split_conditions":[3.0718753E0,2.2914519E-5,-2.5698298E-4,-4.078013E-2,2.0712852E0,1.9980703E4,4.0125037E-3,1.5E1,2.2230367E4,5.6158807E-2,1.2902896E-2,2.2060056E-3,2.0611258E4,-7.4328E-3,4.8834853E-2,4.758395E-2,-1.44316945E-2,-8.8353185E-3,-3.8587864E-2,-2.2133362E-2,5.311341E-2],"split_indices":[2,12,12,0,2,0,12,16,0,0,0,12,0,0,0,0,0,0,0,0,0],"split_type":[0,0,0,0,0,0,0,0,0,0,0,0,0,0,0,0,0,0,0,0,0],"sum_hessian":[6.1594223E1,2.377699E1,3.7817234E1,1.9910686E0,2.1785921E1,2.1141248E0,3.570311E1,1.3887366E1,7.8985558E0,1.0290099E0,1.085115E0,3.2227867E1,3.4752398E0,1.1704954E1,2.1824114E0,6.8784685E0,1.0200874E0,2.149546E1,1.0732409E1,1.5139616E0,1.9612783E0],"tree_param":{"num_deleted":"0","num_feature":"18","num_nodes":"21","size_leaf_vector":"1"}},{"base_weights":[2.4754964E-2,9.48077E-2,-7.0601636E-1,-1.0421549E-1,3.1437173E-1,-4.3161992E-2,-1.6245399E-2,-2.0467587E-1,7.213318E-1,4.990435E-1,-1.2965354E-1,-2.2386244E-2,5.4804496E-3,6.5222853E-3,4.5141906E-2,-2.8358784E-3,3.805227E-2,-3.5879795E-2,1.561032E-2],"categories":[],"categories_nodes":[],"categories_segments":[],"categories_sizes":[],"default_left":[0,0,0,0,0,0,0,0,0,0,0,0,0,0,0,0,0,0,0],"id":55,"left_children":[1,3,5,7,9,-1,-1,11,13,15,17,-1,-1,-1,-1,-1,-1,-1,-1],"loss_changes":[3.2279627E0,2.53353E0,5.0269842E-2,2.6994739E0,2.3162973E0,0E0,0E0,2.2039459E0,2.6394117E-1,2.897036E0,2.5256195E0,0E0,0E0,0E0,0E0,0E0,0E0,0E0,0E0],"parents":[2147483647,0,0,1,1,2,2,3,3,4,4,7,7,8,8,9,9,10,10],"right_children":[2,4,6,8,10,-1,-1,12,14,16,18,-1,-1,-1,-1,-1,-1,-1,-1],"split_conditions":[3.765217E-3,1.737153E-3,1.0685127E0,3.1814172E-3,1.8264437E-3,-4.3161992E-2,-1.6245399E-2,1.7791362E-3,5.8245036E-4,6.0784715E-1,2.6051449E-3,-2.2386244E-2,5.4804496E-3,6.5222853E-3,4.5141906E-2,-2.8358784E-3,3.805227E-2,-3.5879795E-2,1.561032E-2],"split_indices":[13,13,5,10,3,0,0,3,14,5,13,0,0,0,0,0,0,0,0],"split_type":[0,0,0,0,0,0,0,0,0,0,0,0,0,0,0,0,0,0,0],"sum_hessian":[6.0747818E1,5.622799E1,4.519828E0,2.9769167E1,2.6458822E1,2.3041787E0,2.2156494E0,2.7210062E1,2.5591047E0,1.8599367E1,7.859454E0,1.5104538E1,1.2105524E1,1.0052477E0,1.5538571E0,6.210055E0,1.2389313E1,3.1045203E0,4.754934E0],"tree_param":{"num_deleted":"0","num_feature":"18","num_nodes":"19","size_leaf_vector":"1"}},{"base_weights":[-1.0095953E-2,-7.40836E-2,7.2448516E-1,3.4354873E-2,-6.3821554E-1,5.0058242E-2,6.730683E-2,-1.5951379E-1,4.339367E-1,-5.244E-2,-1.658132E-2,2.1857895E-2,-1.7636294E-2,-1.2847284E-2,2.6111126E-2,7.838341E-3,6.08295E-2,-3.866982E-2,2.5981454E-2],"categories":[],"categories_nodes":[],"categories_segments":[],"categories_sizes":[],"default_left":[0,0,0,0,0,0,0,0,0,0,0,0,0,0,0,0,0,0,0],"id":56,"left_children":[1,3,5,7,9,11,-1,13,15,-1,17,-1,-1,-1,-1,-1,-1,-1,-1],"loss_changes":[2.81355E0,3.381466E0,1.9440222E0,3.711116E0,2.2555964E0,6.74917E-1,0E0,2.2853343E0,3.1991873E0,0E0,2.2517345E0,0E0,0E0,0E0,0E0,0E0,0E0,0E0,0E0],"parents":[2147483647,0,0,1,1,2,2,3,3,4,4,5,5,7,7,8,8,10,10],"right_children":[2,4,6,8,10,12,-1,14,16,-1,18,-1,-1,-1,-1,-1,-1,-1,-1],"split_conditions":[4.8925066E-3,3.0622657E-3,2.1068193E4,2.0172321E-3,3.466549E-3,1.349737E-3,6.730683E-2,2.211995E4,2.7916923E-3,-5.244E-2,2E0,2.1857895E-2,-1.7636294E-2,-1.2847284E-2,2.6111126E-2,7.838341E-3,6.08295E-2,-3.866982E-2,2.5981454E-2],"split_indices":[12,12,0,12,12,11,0,0,10,0,17,0,0,0,0,0,0,0,0],"split_type":[0,0,0,0,0,0,0,0,0,0,0,0,0,0,0,0,0,0,0],"sum_hessian":[5.7715664E1,5.391813E1,3.7975338E0,4.6012608E1,7.905525E0,2.3397136E0,1.4578203E0,3.1385717E1,1.4626888E1,4.347121E0,3.558404E0,1.1495687E0,1.1901449E0,2.8006243E1,3.3794742E0,1.168799E1,2.9388983E0,1.2922153E0,2.2661886E0],"tree_param":{"num_deleted":"0","num_feature":"18","num_nodes":"19","size_leaf_vector":"1"}},{"base_weights":[5.8827747E-2,1.2667453E-1,-5.036396E-1,1.774406E-1,-5.585516E-1,-8.381229E-1,1.9800948E-2,1.2299106E-1,8.854803E-1,-4.330453E-2,1.0223509E-2,-7.7149803E-3,-4.8028413E-2,4.9432084E-2,3.7313288E-3,-1.3669861E-3,6.684116E-2],"categories":[],"categories_nodes":[],"categories_segments":[],"categories_sizes":[],"default_left":[0,0,0,0,0,0,0,0,0,0,0,0,0,0,0,0,0],"id":57,"left_children":[1,3,5,7,9,11,-1,13,15,-1,-1,-1,-1,-1,-1,-1,-1],"loss_changes":[2.536686E0,2.13843E0,2.4913392E0,2.024569E0,1.1825525E0,3.1666398E-1,0E0,2.126279E0,1.5982187E0,0E0,0E0,0E0,0E0,0E0,0E0,0E0,0E0],"parents":[2147483647,0,0,1,1,2,2,3,3,4,4,5,5,7,7,8,8],"right_children":[2,4,6,8,10,12,-1,14,16,-1,-1,-1,-1,-1,-1,-1,-1],"split_conditions":[3.6006845E-3,7.345375E0,2.4801106E0,3.05107E-2,1.004954E1,7.305107E-4,1.9800948E-2,-8.6681696E-4,2.1371134E-3,-4.330453E-2,1.0223509E-2,-7.7149803E-3,-4.8028413E-2,4.9432084E-2,3.7313288E-3,-1.3669861E-3,6.684116E-2],"split_indices":[13,9,6,8,9,11,0,14,10,0,0,0,0,0,0,0,0],"split_type":[0,0,0,0,0,0,0,0,0,0,0,0,0,0,0,0,0],"sum_hessian":[6.3800415E1,5.762435E1,6.176065E0,5.433957E1,3.2847843E0,4.5520577E0,1.6240072E0,5.1549057E1,2.7905097E0,2.2448921E0,1.0398922E0,1.0345473E0,3.5175104E0,1.6989506E0,4.985011E1,1.2340755E0,1.5564342E0],"tree_param":{"num_deleted":"0","num_feature":"18","num_nodes":"17","size_leaf_vector":"1"}},{"base_weights":[-2.3971168E-2,-6.683488E-2,6.7128116E-1,-3.920239E-1,6.847191E-2,5.1728036E-2,5.731552E-4,-6.4148605E-1,3.154046E-1,8.6791754E-1,-5.5511963E-2,-3.9777968E-2,2.1385497E-3,5.4138493E-2,-2.1197973E-2,5.7733137E-2,-1.8126207E-3,1.8329551E-2,-7.009288E-3],"categories":[],"categories_nodes":[],"categories_segments":[],"categories_sizes":[],"default_left":[0,0,0,0,0,0,0,0,0,0,0,0,0,0,0,0,0,0,0],"id":58,"left_children":[1,3,5,7,9,-1,-1,11,13,15,17,-1,-1,-1,-1,-1,-1,-1,-1],"loss_changes":[1.835829E0,2.5575962E0,8.463814E-1,3.2110338E0,4.1584206E0,0E0,0E0,1.3975763E0,3.3611135E0,1.500958E0,1.3680989E0,0E0,0E0,0E0,0E0,0E0,0E0,0E0,0E0],"parents":[2147483647,0,0,1,1,2,2,3,3,4,4,7,7,8,8,9,9,10,10],"right_children":[2,4,6,8,10,-1,-1,12,14,16,18,-1,-1,-1,-1,-1,-1,-1,-1],"split_conditions":[3.33691E-3,9.4399904E-4,1.0301853E-3,2.4912392E-3,1.13125E-3,5.1728036E-2,5.731552E-4,2.9725401E0,1.9980703E4,1.4E1,1E1,-3.9777968E-2,2.1385497E-3,5.4138493E-2,-2.1197973E-2,5.7733137E-2,-1.8126207E-3,1.8329551E-2,-7.009288E-3],"split_indices":[10,11,13,10,11,0,0,6,0,16,16,0,0,0,0,0,0,0,0],"split_type":[0,0,0,0,0,0,0,0,0,0,0,0,0,0,0,0,0,0,0],"sum_hessian":[5.9097256E1,5.6516754E1,2.5805025E0,1.6048754E1,4.0468002E1,1.2979401E0,1.2825623E0,1.1933744E1,4.1150093E0,4.6277986E0,3.5840202E1,9.607723E0,2.326021E0,1.791353E0,2.323656E0,3.303194E0,1.3246045E0,5.431995E0,3.0408207E1],"tree_param":{"num_deleted":"0","num_feature":"18","num_nodes":"19","size_leaf_vector":"1"}},{"base_weights":[-2.4702381E-2,-6.8591E-2,6.3412386E-1,6.0815647E-2,-4.573322E-1,2.5486758E-3,4.4545744E-2,2.7649412E-1,-2.4995142E-1,1.9948195E-1,-7.9515547E-1,7.481612E-3,6.2534384E-2,-2.0089447E-2,2.5971634E-2,3.2260176E-2,-2.6944607E-2,-4.751825E-2,-7.861647E-3],"categories":[],"categories_nodes":[],"categories_segments":[],"categories_sizes":[],"default_left":[0,0,0,0,0,0,0,0,0,0,0,0,0,0,0,0,0,0,0],"id":59,"left_children":[1,3,5,7,9,-1,-1,11,13,15,17,-1,-1,-1,-1,-1,-1,-1,-1],"loss_changes":[1.865906E0,3.0457802E0,5.5866647E-1,3.1450658E0,3.5092082E0,0E0,0E0,3.2196186E0,2.4664707E0,2.2987275E0,8.57738E-1,0E0,0E0,0E0,0E0,0E0,0E0,0E0,0E0],"parents":[2147483647,0,0,1,1,2,2,3,3,4,4,7,7,8,8,9,9,10,10],"right_children":[2,4,6,8,10,-1,-1,12,14,16,18,-1,-1,-1,-1,-1,-1,-1,-1],"split_conditions":[5.842925E-3,2.7494782E-3,8.881954E-1,1.7486501E-3,9.9986917E-1,2.5486758E-3,4.4545744E-2,1.7234329E-3,2.3246564E-3,1.4E1,3.6587284E-3,7.481612E-3,6.2534384E-2,-2.0089447E-2,2.5971634E-2,3.2260176E-2,-2.6944607E-2,-4.751825E-2,-7.861647E-3],"split_indices":[14,14,5,3,7,0,0,3,14,16,14,0,0,0,0,0,0,0,0],"split_type":[0,0,0,0,0,0,0,0,0,0,0,0,0,0,0,0,0,0,0],"sum_hessian":[6.2026543E1,5.899256E1,3.0339818E0,4.4892136E1,1.4100424E1,1.2939758E0,1.740006E0,2.6565466E1,1.832667E1,4.9282207E0,9.172203E0,2.4525314E1,2.0401504E0,1.5705064E1,2.621607E0,3.151807E0,1.7764136E0,6.9833417E0,2.1888611E0],"tree_param":{"num_deleted":"0","num_feature":"18","num_nodes":"19","size_leaf_vector":"1"}},{"base_weights":[3.5090733E-2,2.574509E-1,-1.3477631E-1,5.718557E-1,-1.7270912E-1,-2.407163E-1,4.7923458E-1,-1.900243E-2,6.810115E-1,-4.3506214E-1,5.891713E-1,-5.887975E-1,-2.945949E-2,9.106575E-1,-9.784576E-2,4.3637514E-2,1.2493785E-2,-2.0734323E-3,-4.860383E-2,5.8911163E-2,-5.824587E-3,1.4725548E-2,-4.208536E-2,-1.8257923E-2,2.2931863E-2,5.6979544E-2,1.0047133E-2,1.1530637E-2,-1.7189316E-2],"categories":[],"categories_nodes":[],"categories_segments":[],"categories_sizes":[],"default_left":[0,0,0,0,0,0,0,0,0,0,0,0,0,0,0,0,0,0,0,0,0,0,0,0,0,0,0,0,0],"id":60,"left_children":[1,3,5,7,9,11,13,-1,15,17,19,21,23,25,27,-1,-1,-1,-1,-1,-1,-1,-1,-1,-1,-1,-1,-1,-1],"loss_changes":[2.3869214E0,3.7928019E0,2.4545627E0,1.9225631E0,2.7152178E0,2.286862E0,1.4897785E0,0E0,9.9900436E-1,2.0154152E0,1.6236166E0,2.880022E0,